svm_type c_svc
kernel_type rbf
gamma 0.01
nr_class 3
total_sv 3122
rho 33.0923 -10.7533 -19.4395
label 1 3 2
nr_sv 651 2347 124
SV
400 0 1:1 2:0.17703556 3:0.017075103 4:0.033668015 5:1 6:0.066118687 7:0.37583342 9:0.44412285 11:0.44412285 13:0.63636363 15:0.30627367 16:1 17:0.30914098 18:1 19:1 22:0.68914735 23:0.71786445 24:0.019625405 25:0.050415833 26:0.14769144 27:0.30777648 28:1 29:0.31634876 30:1 31:1 34:0.69435906 35:0.72257191 36:0.019624518 37:0.050415833 38:0.14710714 39:0.31271508 40:1 41:0.30627367 42:1 43:1 46:0.69288969 47:0.71743292 48:0.019622998 49:0.050413728 50:0.1457528 51:0.30098429 
400 0 0:1 2:0.18544236 3:0.0040692193 4:0.083516076 6:0.24382284 7:0.41105333 9:0.56364447 10:0.47453877 11:0.56364447 13:0.51999998 15:0.3602058 16:1 17:0.36357799 18:1 19:1 22:0.68914735 23:0.62580436 24:0.010366544 25:0.066563793 26:0.24458836 27:0.19686644 28:1 29:0.37205499 30:1 31:1 34:0.69435906 35:0.63131028 36:0.010365648 37:0.066563793 38:0.24363343 39:0.20003666 40:1 41:0.3602058 42:1 43:1 46:0.69288969 47:0.62448072 48:0.010364114 49:0.066561729 50:0.24140058 51:0.19249485 
400 0 0:1 2:0.24849166 3:0.0098872222 4:0.034142554 6:0.14617088 7:0.51160306 9:0.41560349 10:0.25070873 11:0.41560349 13:0.375 15:0.36879024 16:1 17:0.37224281 18:1 19:1 22:0.68914735 23:0.67584318 24:0.024598774 25:0.069975868 26:0.24121746 27:0.37462994 28:1 29:0.38092184 30:1 31:1 34:0.69435906 35:0.68091506 36:0.024597891 37:0.069975868 38:0.24027543 39:0.38063446 40:1 41:0.36879024 42:1 43:1 46:0.69288969 47:0.67500442 48:0.024596378 49:0.069973804 50:0.23807314 51:0.36637869 
400 0 0:1 2:0.24263448 3:0.00079960818 4:0.0034743997 7:0.41069716 9:0.38268033 10:0.31635919 11:0.38268033 13:0.625 15:0.29225937 16:1 17:0.29499546 18:1 19:1 22:0.68914735 23:0.75358325 24:0.0013746527 25:0.0060477424 26:0.19441384 27:0.32517067 28:1 29:0.30187342 30:1 31:1 34:0.69435906 35:0.75798094 36:0.0013737486 37:0.0060477424 38:0.19365083 39:0.33038661 40:1 41:0.29225937 42:1 43:1 46:0.69288969 47:0.75349778 48:0.0013722003 49:0.006045538 50:0.19187288 51:0.31799886 
400 0 0:1 2:0.34074998 3:0.058332626 4:0.11803385 6:0.02421527 7:0.49234948 9:0.14804095 10:0.36728165 11:0.14804095 13:0.11111111 15:0.2765927 16:1 17:0.27918211 18:1 19:1 22:0.68914735 23:0.740372 24:0.018190613 25:0.076900244 26:0.052249059 27:0.16783629 28:1 29:0.28569138 30:1 31:1 34:0.69435906 35:0.74488425 36:0.018189725 37:0.076900244 38:0.0520298 39:0.17054366 40:1 41:0.2765927 42:1 43:1 46:0.69288969 47:0.7401585 48:0.018188203 49:0.076898195 50:0.051540803 51:0.16409829 
400 0 0:1 2:0.67135924 3:0.046069339 4:0.12358222 6:0.066118687 7:0.33210754 9:0.44412285 10:0.31635919 11:0.44412285 13:0.63636363 15:0.31895116 16:1 17:0.32193714 18:1 19:1 22:0.68914735 23:0.71786445 24:0.018695846 25:0.097605199 26:0.065626264 27:0.19510782 28:1 29:0.32944328 30:1 31:1 34:0.69435906 35:0.72257191 36:0.018694958 37:0.097605199 38:0.065355837 39:0.19825 40:1 41:0.31895116 42:1 43:1 46:0.69288969 47:0.71743292 48:0.018693438 49:0.097603202 50:0.064745553 51:0.19077462 
37.19198572458561 0 0:1 2:0.24478848 3:0.014247184 4:0.067177698 6:0.15930776 7:0.50768512 9:0.38268033 10:0.31635919 11:0.38268033 13:0.29411766 15:0.3602058 16:1 17:0.36357799 18:1 19:1 22:0.68914735 23:0.66904497 24:0.021393549 25:0.1041434 26:0.177011 27:0.31541768 28:1 29:0.37205499 30:1 31:1 34:0.69435906 35:0.6741758 36:0.021392664 37:0.1041434 38:0.17631455 39:0.32047808 40:1 41:0.3602058 42:1 43:1 46:0.69288969 47:0.66814029 48:0.021391146 49:0.10414142 50:0.17469439 51:0.30845869 
400 0 0:1 1:0.66666669 2:1 3:0.56023288 4:0.68865639 6:0.066118687 7:0.54481745 9:0.46927872 10:0.31635919 11:0.46927872 13:0.72727275 15:0.31895116 16:1 17:0.32193714 18:1 19:1 22:0.68914735 23:0.71786445 24:0.022100333 25:0.068698272 26:0.0072323508 27:0.027324948 28:1 29:0.32944328 30:1 31:1 34:0.69435906 35:0.72257191 36:0.022099447 37:0.068698272 38:0.007185284 39:0.027791969 40:1 41:0.31895116 42:1 43:1 46:0.69288969 47:0.71743292 48:0.022097932 49:0.068696208 50:0.0071044299 51:0.026653608 
400 0 1:0.33333334 2:0.099136792 3:0.011234916 4:0.079668067 5:0.33333334 6:0.35945243 7:0.49485907 9:0.34374046 10:0.54721147 11:0.34374046 13:0.095238097 15:0.50028837 16:1 17:0.50497204 18:1 19:1 22:0.68914735 23:0.56766087 24:0.011854785 25:0.081349202 26:0.13909128 27:0.23666352 28:1 29:0.51674569 30:1 31:1 34:0.69435906 35:0.57367098 36:0.01185389 37:0.081349202 38:0.13853987 39:0.24046828 40:1 41:0.50028837 42:1 43:1 46:0.69288969 47:0.56577379 48:0.011852358 49:0.08134716 50:0.13726351 51:0.23142338 
400 0 1:0.33333334 2:0.22975515 3:0.024483969 4:0.048388328 5:0.33333334 6:0.046120655 7:0.49432886 9:0.23463936 11:0.23463936 13:0.2 15:0.31895116 16:1 17:0.32193714 18:1 19:1 22:0.68914735 23:0.72855437 24:0.031599913 25:0.079697698 26:0.15995812 27:0.32771003 28:1 29:0.32944328 30:1 31:1 34:0.69435906 35:0.73316908 36:0.031599034 37:0.079697698 38:0.15932688 39:0.33296645 40:1 41:0.31895116 42:1 43:1 46:0.69288969 47:0.72822636 48:0.031597532 49:0.079695664 50:0.15786134 51:0.32048279 
400 0 0:1 2:0.28150684 3:0.00034666955 4:0.015168704 6:0.38473421 7:0.50645566 9:0.14804095 10:0.25070873 11:0.14804095 13:0.021276595 15:0.42272237 16:1 17:0.42667985 18:1 19:1 22:0.68914735 23:0.55505991 24:0.0028448545 25:0.048630722 26:0.42817101 27:0.47660315 28:1 29:0.4366281 30:1 31:1 34:0.69435906 35:0.56117934 36:0.0028439518 37:0.048630722 38:0.42651388 39:0.48423353 40:1 41:0.42272237 42:1 43:1 46:0.69288969 47:0.55305076 48:0.0028424058 49:0.04862861 50:0.42261657 51:0.46612632 
0 33.38280092159474 0:1 1:0.66666669 2:0.67417449 3:0.0074062007 4:0.040512744 6:0.24382284 7:0.67066664 9:0.57837981 10:0.1581796 11:0.57837981 13:0.56 16:1 22:0.68914735 23:0.62580436 24:0.094991989 25:0.23139942 26:0.50721538 27:0.64257598 28:1 34:0.69435906 35:0.63131028 36:0.09499117 37:0.23139942 38:0.50525588 39:0.65285271 40:1 46:0.69288969 47:0.62448072 48:0.094989762 49:0.23139772 50:0.50064194 51:0.6284768 
400 0 0:1 2:0.32105917 3:0.0067218891 4:0.11613304 6:0.23480867 7:0.65250105 9:0.56364447 10:0.54721147 11:0.56364447 13:0.54166669 15:0.41706139 16:1 17:0.42096585 18:1 19:1 22:0.68914735 23:0.63038081 24:0.0059343483 25:0.10695507 26:0.1223034 27:0.21920015 28:1 29:0.43078089 30:1 31:1 34:0.69435906 35:0.63584697 36:0.0059334482 37:0.10695507 38:0.12181619 39:0.22272646 40:1 41:0.41706139 42:1 43:1 46:0.69288969 47:0.62910151 48:0.0059319073 49:0.10695309 50:0.12069204 51:0.21434113 
284.0066585936535 0 1:1 2:0.15550077 3:0.012149225 4:0.048574906 5:0.66666669 6:0.30547863 7:0.41840571 9:0.66967243 10:0.36728165 11:0.66967243 13:0.66666669 16:1 22:0.68914735 23:0.59468478 24:0.006812857 25:0.088256955 26:0.085970812 27:0.34869835 28:1 34:0.69435906 35:0.60046059 36:0.0068119578 37:0.088256955 38:0.085622571 39:0.35428941 40:1 46:0.69288969 47:0.5930596 48:0.0068104179 49:0.088254936 50:0.084827833 51:0.34101307 
400 0 1:1 2:0.17703556 3:0.0018656409 4:0.10005425 5:1 6:0.02421527 7:0.53351277 10:0.25070873 15:0.30627367 16:1 17:0.30914098 18:1 19:1 22:0.68914735 23:0.740372 24:0.0015044053 25:0.10025583 26:0.11509325 27:0.23332424 28:1 29:0.31634876 30:1 31:1 34:0.69435906 35:0.74488425 36:0.0015035012 37:0.10025583 38:0.11463361 39:0.23707576 40:1 41:0.30627367 42:1 43:1 46:0.69288969 47:0.7401585 48:0.0015019531 49:0.10025384 50:0.11357483 51:0.22815697 
400 0 1:0.33333334 2:0.14255984 3:0.018328881 4:0.08729732 5:0.33333334 6:0.046120655 7:0.44814682 9:0.23463936 10:0.47453877 11:0.23463936 13:0.2 15:0.25883126 16:1 17:0.26125443 18:1 19:1 22:0.68914735 23:0.72855437 24:0.0017445915 25:0.084756508 26:0.017526008 27:0.22808796 28:1 29:0.2673457 30:1 31:1 34:0.69435906 35:0.73316908 36:0.0017436878 37:0.084756508 38:0.01743957 39:0.23175599 40:1 41:0.25883126 42:1 43:1 46:0.69288969 47:0.72822636 48:0.00174214 49:0.084754482 50:0.017265387 51:0.22303496 
400 0 1:1 2:0.17703556 3:0.05913265 4:0.13624448 5:1 6:0.20542841 7:0.64600253 9:0.62886721 10:0.1581796 11:0.62886721 13:0.85714287 15:0.39847124 16:1 17:0.40220168 18:1 19:1 22:0.68914735 23:0.64535147 24:0.016352706 25:0.092955522 26:0.046979476 27:0.17394854 28:1 29:0.41157922 30:1 31:1 34:0.69435906 35:0.65068781 36:0.016351813 37:0.092955522 38:0.046780378 39:0.17675334 40:1 41:0.39847124 42:1 43:1 46:0.69288969 47:0.64421725 48:0.01635029 49:0.092953511 50:0.046339154 51:0.17007713 
400 0 0:1 2:0.54453325 3:0.0041579362 4:0.0080540553 6:0.02421527 7:0.51720321 10:0.1581796 15:0.30627367 16:1 17:0.30914098 18:1 19:1 22:0.68914735 23:0.740372 24:0.00040244989 25:0.014501746 26:0.018516995 27:0.33970281 28:1 29:0.31634876 30:1 31:1 34:0.69435906 35:0.74488425 36:0.00040154488 37:0.014501746 38:0.018426765 39:0.34515047 40:1 41:0.30627367 42:1 43:1 46:0.69288969 47:0.7401585 48:0.0003999951 49:0.014499559 50:0.018243598 51:0.33221385 
400 0 1:1 2:0.17703556 3:0.059616119 4:0.10684775 5:1 6:0.066118687 7:0.49403667 9:0.23463936 10:0.1581796 11:0.23463936 13:0.18181819 15:0.25883126 16:1 17:0.26125443 18:1 19:1 22:0.68914735 23:0.71786445 24:0.058105834 25:0.10439719 26:0.13124862 27:0.22903067 28:1 29:0.2673457 30:1 31:1 34:0.69435906 35:0.72257191 36:0.058104977 37:0.10439719 38:0.1307272 39:0.23271373 40:1 41:0.25883126 42:1 43:1 46:0.69288969 47:0.71743292 48:0.058103517 49:0.1043952 50:0.12952195 51:0.22395711 
400 0 0:1 2:0.46324205 3:0.0038163085 4:0.13995083 6:0.046120655 7:0.49172342 9:0.2960819 10:0.25070873 11:0.2960819 13:0.30000001 15:0.31895116 16:1 17:0.32193714 18:1 19:1 22:0.68914735 23:0.72855437 24:0.0032477304 25:0.11173303 26:0.11923857 27:0.19663729 28:1 29:0.32944328 30:1 31:1 34:0.69435906 35:0.73316908 36:0.003246828 37:0.11173303 38:0.11876309 39:0.19980386 40:1 41:0.31895116 42:1 43:1 46:0.69288969 47:0.72822636 48:0.0032452825 49:0.11173106 50:0.11766673 51:0.19227071 
400 0 1:0.33333334 2:0.18646516 3:0.012162547 4:0.064685866 5:0.33333334 6:0.28424823 7:0.48944932 9:0.44412285 10:0.44406623 11:0.44412285 13:0.23333333 15:0.45676482 16:1 17:0.46104097 18:1 19:1 22:0.68914735 23:0.60536706 24:0.0084354347 25:0.073842831 26:0.10172789 27:0.2563301 28:1 29:0.4717904 30:1 31:1 34:0.69435906 35:0.61105019 36:0.0084345369 37:0.073842831 38:0.10131939 39:0.2604484 40:1 41:0.45676482 42:1 43:1 46:0.69288969 47:0.60384542 48:0.0084329993 49:0.073840775 50:0.10038178 51:0.25066072 
400 0 1:1 2:0.17703556 3:0.00024615444 4:0.03908347 5:1 6:0.02421527 7:0.505665 15:0.30627367 16:1 17:0.30914098 18:1 19:1 22:0.68914735 23:0.740372 24:0.00060425227 25:0.049748003 26:0.24216451 27:0.27640352 28:1 29:0.31634876 30:1 31:1 34:0.69435906 35:0.74488425 36:0.00060334743 37:0.049748003 38:0.24121885 39:0.28084189 40:1 41:0.30627367 42:1 43:1 46:0.69288969 47:0.7401585 48:0.00060179795 49:0.049745899 50:0.23900798 51:0.27029604 
400 0 0:1 1:0.66666669 2:0.17893621 3:0.037808593 4:0.053110935 7:0.47925663 9:0.14804095 10:0.31635919 11:0.14804095 13:0.125 15:0.30627367 16:1 17:0.30914098 18:1 19:1 22:0.68914735 23:0.75358325 24:0.062202968 25:0.079633139 26:0.18773828 27:0.30843922 28:1 29:0.31634876 30:1 31:1 34:0.69435906 35:0.75798094 36:0.062202115 37:0.079633139 38:0.18700078 39:0.31338841 40:1 41:0.30627367 42:1 43:1 46:0.69288969 47:0.75349778 48:0.062200662 49:0.079631098 50:0.18528338 51:0.30163258 
400 0 1:1 2:0.11143679 3:0.015152206 4:0.091116078 5:0.66666669 6:0.13223737 7:0.48265007 10:0.47453877 15:0.41706139 16:1 17:0.42096585 18:1 19:1 21:0.0625 22:0.73500347 23:0.72083086 24:0.0083724223 25:0.036633097 26:0.084912576 27:0.11291289 28:1 29:0.43078089 30:1 31:1 33:0.0625 34:0.73944634 35:0.72551262 36:0.0083715245 37:0.036633097 38:0.084568381 39:0.11474454 40:1 41:0.41706139 42:1 43:1 45:0.0625 46:0.73819375 47:0.72042805 48:0.0083699869 49:0.036630958 50:0.083783247 51:0.11037359 
400 0 1:1 2:0.13199057 3:0.0069671408 4:0.044138134 5:0.66666669 6:0.31861553 7:0.42019221 9:0.7039181 10:0.52546126 11:0.7039181 13:0.74285716 15:0.39164856 16:1 17:0.39531511 18:1 19:1 21:0.0625 22:0.73500347 23:0.62581909 24:0.018496659 25:0.040918 26:0.25026995 27:0.22120537 28:1 29:0.4045321 30:1 31:1 33:0.0625 34:0.73944634 35:0.63132483 36:0.01849577 37:0.040918 38:0.24929328 39:0.22476365 40:1 41:0.39164856 42:1 43:1 45:0.0625 46:0.73819375 47:0.62449557 48:0.018494248 49:0.040915873 50:0.24700892 51:0.21630257 
400 0 0:1 2:0.37464443 3:0.00085998036 4:0.015028853 6:0.02421527 7:0.50426787 9:0.14804095 10:0.25070873 11:0.14804095 13:0.11111111 15:0.3411715 16:1 17:0.34436551 18:1 19:1 21:0.0625 22:0.73500347 23:0.7781288 24:0.0075960727 25:0.053657327 26:0.4411599 27:0.50397921 28:1 29:0.35239458 30:1 31:1 33:0.0625 34:0.73944634 35:0.78231359 36:0.007595174 37:0.053657327 38:0.43945307 39:0.5120461 40:1 41:0.3411715 42:1 43:1 45:0.0625 46:0.73819375 47:0.77828115 48:0.0075936355 49:0.05365523 50:0.43543801 51:0.4929049 
400 5.834326046869684 0:1 2:0.18710332 4:0.0061915871 7:0.51233786 16:1 21:0.0625 22:0.73500347 23:0.80632073 24:0.081227951 25:0.09636531 26:1 27:0.90897495 28:1 33:0.0625 34:0.73944634 35:0.81026095 36:0.081227116 37:0.09636531 38:1 39:0.92349929 40:1 45:0.0625 46:0.73819375 47:0.80674624 48:0.081225693 49:0.096363313 50:1 51:0.88906163 
400 0 0:1 2:0.3139452 3:0.047114648 4:0.070794262 7:0.50285131 9:0.41560349 10:0.1581796 11:0.41560349 13:0.85714287 15:0.3411715 16:1 17:0.34436551 18:1 19:1 21:0.0625 22:0.73500347 23:0.80632073 24:0.061143599 25:0.090107553 26:0.16052958 27:0.27642703 28:1 29:0.35239458 30:1 31:1 33:0.0625 34:0.73944634 35:0.81026095 36:0.061142746 37:0.090107553 38:0.15989617 39:0.28086579 40:1 41:0.3411715 42:1 43:1 45:0.0625 46:0.73819375 47:0.80674624 48:0.06114129 49:0.090105534 50:0.15842544 51:0.27031904 
400 0 1:0.33333334 2:0.1949897 3:0.0013181726 4:0.036355387 5:0.33333334 6:0.37495261 7:0.51348412 10:0.54721147 15:0.60289448 16:1 17:0.60853869 18:1 19:1 21:0.0625 22:0.73500347 23:0.59764898 24:0.00354241 25:0.062281478 26:0.2523658 27:0.3355833 28:1 29:0.6227271 30:1 31:1 33:0.0625 34:0.73944634 35:0.6033991 36:0.0035415078 37:0.062281478 38:0.2513811 39:0.34096524 40:1 41:0.60289448 42:1 43:1 45:0.0625 46:0.73819375 47:0.59605253 48:0.0035399627 49:0.062279399 50:0.24907775 51:0.32818422 
400 0 1:1 2:0.20406596 3:3.0432639e-05 4:0.0012562745 5:1 6:0.29861748 7:0.50154799 15:0.5305866 16:1 17:0.53555387 18:1 19:1 21:0.0625 22:0.73500347 23:0.63586533 24:0.00032361632 25:0.057717625 26:0.46514019 27:1 28:1 29:0.54804063 30:1 31:1 33:0.0625 34:0.73944634 35:0.64128393 36:0.00032271122 37:0.057717625 38:0.46334165 39:1 40:1 41:0.5305866 42:1 43:1 45:0.0625 46:0.73819375 47:0.63463914 48:0.00032116132 49:0.057715539 50:0.45910916 51:1 
400 0 0:1 1:0.66666669 2:0.23034599 3:0.0080617424 4:0.061105557 6:0.39866769 7:0.47872955 9:0.41560349 10:0.50141746 11:0.41560349 13:0.12 15:0.5924859 16:1 17:0.59803271 18:1 19:1 21:0.0625 22:0.73500347 23:0.58584124 24:0.011843069 25:0.054737911 26:0.17455173 27:0.2152912 28:1 29:0.61197615 30:1 31:1 33:0.0625 34:0.73944634 35:0.5916937 36:0.011842175 37:0.054737911 38:0.17386466 39:0.21875519 40:1 41:0.5924859 42:1 43:1 45:0.0625 46:0.73819375 47:0.58413035 48:0.011840642 49:0.054735813 50:0.17226681 51:0.2105175 
400 0 0:1 2:0.22124448 3:0.0042252275 4:0.084415786 6:0.14617088 7:0.36350861 9:0.5921638 10:0.1581796 11:0.5921638 13:0.9375 15:0.35102886 16:1 17:0.35431513 18:1 19:1 21:0.0625 22:0.73500347 23:0.71359241 24:0.005968906 25:0.089400083 26:0.17024651 27:0.24293391 28:1 29:0.36257619 30:1 31:1 33:0.0625 34:0.73944634 35:0.71833688 36:0.0059680059 37:0.089400083 38:0.16957593 39:0.24683864 40:1 41:0.35102886 42:1 43:1 45:0.0625 46:0.73819375 47:0.71311939 48:0.005966465 49:0.089398064 50:0.1680171 51:0.2375569 
400 0 1:1 2:0.31666076 3:0.043208484 4:0.10096996 5:0.66666669 6:0.08451508 7:0.51892221 9:0.34374046 10:0.36728165 11:0.34374046 13:0.33333334 15:0.14612968 16:1 17:0.14749773 18:1 19:1 21:0.0625 22:0.73500347 23:0.74585927 24:0.01705811 25:0.045488432 26:0.064108461 27:0.12413859 28:1 29:0.15093671 30:1 31:1 33:0.0625 34:0.73944634 35:0.75032389 36:0.01705722 37:0.045488432 38:0.063843846 39:0.12614922 40:1 41:0.14612968 42:1 43:1 45:0.0625 46:0.73819375 47:0.74569893 48:0.017055696 49:0.045486316 50:0.06324733 51:0.12135429 
400 0 1:1 2:0.19206326 3:0.010006569 4:0.10106983 5:0.66666669 6:0.08451508 7:0.58151537 10:0.56706792 15:0.39164856 16:1 17:0.39531511 18:1 19:1 21:0.0625 22:0.73500347 23:0.74585927 24:0.01100912 25:0.095309183 26:0.14329131 27:0.22315992 28:1 29:0.4045321 30:1 31:1 33:0.0625 34:0.73944634 35:0.75032389 36:0.011008224 37:0.095309183 38:0.14272383 39:0.22674938 40:1 41:0.39164856 42:1 43:1 45:0.0625 46:0.73819375 47:0.74569893 48:0.011006691 49:0.095307179 50:0.1414094 51:0.2182145 
400 0 1:0.33333334 2:0.088028848 3:0.0016793269 4:0.046305299 5:0.33333334 6:0.35404435 7:0.5055607 10:0.1581796 15:0.48029888 16:1 17:0.48479539 18:1 19:1 21:0.0625 22:0.73500347 23:0.60808277 24:0.0038412933 25:0.028269809 26:0.23017608 27:0.16134192 28:1 29:0.49609864 30:1 31:1 33:0.0625 34:0.73944634 35:0.61374235 36:0.0038403915 37:0.028269809 38:0.22927627 39:0.16394573 40:1 41:0.48029888 42:1 43:1 45:0.0625 46:0.73819375 47:0.60658741 48:0.0038388469 49:0.028267656 50:0.22717409 51:0.15774566 
400 0 0:1 1:0.66666669 2:0.28345975 3:0.0339013 4:0.17522025 6:0.23480867 7:0.6138888 9:0.6051119 10:0.47453877 11:0.6051119 13:0.66666669 15:0.49715853 16:1 17:0.50181288 18:1 19:1 21:0.0625 22:0.73500347 23:0.66812128 24:0.022294136 25:0.05873302 26:0.097468205 27:0.095024146 28:1 29:0.51351291 30:1 31:1 33:0.0625 34:0.73944634 35:0.67326015 36:0.022293251 37:0.05873302 38:0.097075999 39:0.096570574 40:1 41:0.49715853 42:1 43:1 45:0.0625 46:0.73819375 47:0.66720766 48:0.022291735 49:0.058730934 50:0.096177012 51:0.092875265 
400 0 1:0.33333334 2:0.15199946 3:0.0045790095 4:0.048423678 5:0.33333334 6:0.08451508 7:0.47608984 9:0.2960819 10:0.31635919 11:0.2960819 13:0.25 15:0.25883126 16:1 17:0.26125443 18:1 19:1 21:0.0625 22:0.73500347 23:0.74585927 24:0.0030713782 25:0.083726697 26:0.099418446 27:0.33799887 28:1 29:0.2673457 30:1 31:1 33:0.0625 34:0.73944634 35:0.75032389 36:0.0030704758 37:0.083726697 38:0.099018775 39:0.34341931 40:1 41:0.25883126 42:1 43:1 45:0.0625 46:0.73819375 47:0.74569893 48:0.00306893 49:0.08372467 50:0.098102108 51:0.33054706 
400 0 1:1 2:0.17020565 3:0.069854043 4:0.11065891 5:0.66666669 6:0.15930776 7:0.57770801 9:0.44412285 10:0.36728165 11:0.44412285 13:0.41176471 15:0.31895116 16:1 17:0.32193714 18:1 19:1 21:0.0625 22:0.73500347 23:0.70679307 24:0.0022212262 25:0.094780006 26:0.0058564972 27:0.20763206 28:1 29:0.32944328 30:1 31:1 33:0.0625 34:0.73944634 35:0.71159655 36:0.0022203231 37:0.094780006 38:0.0058146929 39:0.21097393 40:1 41:0.31895116 42:1 43:1 45:0.0625 46:0.73819375 47:0.70625424 48:0.0022187759 49:0.094778001 50:0.0057463129 51:0.20302552 
365.749349021875 0 1:1 2:0.35957581 3:0.039055254 4:0.93358451 5:0.66666669 6:0.20542841 7:0.5142346 9:0.66017854 11:0.66017854 13:1 15:0.48384613 16:1 17:0.48837581 18:1 19:1 21:0.0625 22:0.73500347 23:0.68309522 24:0.031201029 25:0.10811891 26:0.11325711 27:0.032136787 28:1 29:0.49976256 30:1 31:1 33:0.0625 34:0.73944634 35:0.68810421 36:0.031200152 37:0.10811891 38:0.1128045 39:0.03268053 40:1 41:0.48384613 42:1 43:1 45:0.0625 46:0.73819375 47:0.68232673 48:0.031198651 49:0.10811692 50:0.11176237 51:0.031360429 
400 0 1:1 2:0.20588315 3:0.00059275288 4:0.37339097 5:0.66666669 6:0.10154754 7:0.50232995 15:0.41114873 16:1 17:0.41499785 18:1 19:1 21:0.0625 22:0.73500347 23:0.73688126 24:0.00030638289 25:0.1033411 26:0.084508017 27:0.078879215 28:1 29:0.42467374 30:1 31:1 33:0.0625 34:0.73944634 35:0.74142379 36:0.00030547779 37:0.1033411 38:0.084165365 39:0.080168232 40:1 41:0.41114873 42:1 43:1 45:0.0625 46:0.73819375 47:0.73663396 48:0.00030392787 49:0.10333911 50:0.083383895 51:0.077082701 
400 0 0:1 2:0.2496642 3:0.035233904 4:0.1400754 6:0.21564487 7:0.5087409 9:0.38268033 10:0.47453877 11:0.38268033 13:0.22727273 15:0.50028837 16:1 17:0.50497204 18:1 19:1 21:0.0625 22:0.73500347 23:0.6778785 24:0.01620166 25:0.10081901 26:0.072926 27:0.18141904 28:1 29:0.51674569 30:1 31:1 33:0.0625 34:0.73944634 35:0.68293273 36:0.01620077 37:0.10081901 38:0.072627649 39:0.18434297 40:1 41:0.50028837 42:1 43:1 45:0.0625 46:0.73819375 47:0.67705941 48:0.016199244 49:0.10081702 50:0.071951188 51:0.1773846 
400 0 1:1 2:0.26529625 3:0.047635734 4:0.20654495 5:0.66666669 6:0.02421527 7:0.46705541 9:0.2960819 10:0.31635919 11:0.2960819 13:0.33333334 15:0.3411715 16:1 17:0.34436551 18:1 19:1 21:0.0625 22:0.73500347 23:0.7781288 24:0.045374271 25:0.081437379 26:0.12907808 27:0.10954665 28:1 29:0.35239458 30:1 31:1 33:0.0625 34:0.73944634 35:0.78231359 36:0.045373403 37:0.081437379 38:0.12856495 39:0.11132463 40:1 41:0.3411715 42:1 43:1 45:0.0625 46:0.73819375 47:0.77828115 48:0.04537192 49:0.081435345 50:0.12737939 51:0.10708082 
0 45.33897025309113 1:0.33333334 2:0.046309892 3:0.0021752571 4:0.011920105 5:0.33333334 6:0.22542645 7:0.50982398 9:0.41560349 10:0.60224587 11:0.41560349 13:0.26086956 16:1 21:0.0625 22:0.73500347 23:0.67289376 24:0.16988346 25:0.34023738 26:0.84397435 27:1 28:1 33:0.0625 34:0.73944634 35:0.67799121 36:0.16988271 37:0.34023738 38:0.84072673 39:1 40:1 45:0.0625 46:0.73819375 47:0.6720264 48:0.16988142 49:0.34023589 50:0.83305955 51:1 
400 0 0:1 2:0.33075359 3:0.0031036544 4:0.14156699 6:0.58554602 7:0.43549618 10:0.63271838 15:0.71559608 16:1 17:0.7222954 18:1 19:1 21:0.0625 22:0.73500347 23:0.49354327 24:0.0036693537 25:0.084217712 26:0.15103626 27:0.1557681 28:1 29:0.7391361 30:1 31:1 33:0.0625 34:0.73944634 35:0.50019622 36:0.0036684517 37:0.084217712 38:0.15043916 39:0.15828304 40:1 41:0.71559608 42:1 43:1 45:0.0625 46:0.73819375 47:0.49093801 48:0.0036669069 49:0.084215686 50:0.1490545 51:0.15229349 
0 206.9388116559328 0:1 2:0.057652354 3:1.8613682e-05 4:0.0045329095 6:0.10154754 7:0.46282643 9:0.46927872 11:0.46927872 13:0.61538464 15:0.2765927 16:1 17:0.27918211 18:1 19:1 21:0.0625 22:0.73500347 23:0.73688126 24:0.20928697 25:0.3084636 26:1 27:1 28:1 29:0.28569138 30:1 31:1 33:0.0625 34:0.73944634 35:0.74142379 36:0.20928624 37:0.3084636 38:1 39:1 40:1 41:0.2765927 42:1 43:1 45:0.0625 46:0.73819375 47:0.73663396 48:0.20928502 49:0.30846205 50:1 51:1 
400 0 0:1 2:0.38683531 3:0.018773776 4:0.048696134 6:0.28424823 7:0.48591092 9:0.23463936 10:0.25070873 11:0.23463936 13:0.06666667 15:0.58451873 16:1 17:0.58999091 18:1 19:1 21:0.1875 22:0.78555059 23:0.68470567 24:0.033543132 25:0.065041721 26:0.19783315 27:0.28557914 28:1 29:0.60374683 30:1 31:1 33:0.1875 34:0.78914601 35:0.68970066 36:0.033542253 37:0.065041721 38:0.19705705 39:0.29016382 40:1 41:0.58451873 42:1 43:1 45:0.1875 46:0.78813231 47:0.68395275 48:0.033540756 49:0.06503965 50:0.19524811 51:0.27927142 
400 0 1:1 2:0.21074238 3:0.00050656416 4:0.063224338 5:1 6:0.02421527 7:0.52092695 15:0.39164856 16:1 17:0.39531511 18:1 19:1 21:0.1875 22:0.78555059 23:0.81975114 24:0.00022397109 25:0.070019662 26:0.075778201 27:0.25092462 28:1 29:0.4045321 30:1 31:1 33:0.1875 34:0.78914601 35:0.8235749 36:0.0002230659 37:0.070019662 38:0.07546895 39:0.25495675 40:1 41:0.39164856 42:1 43:1 45:0.1875 46:0.78813231 47:0.82030684 48:0.00022151585 49:0.070017606 50:0.074766621 51:0.24537322 
400 0 1:1 2:0.29348257 3:0.004827674 4:0.033372253 5:0.66666669 6:0.26085529 7:0.5059858 10:0.36728165 15:0.5531854 16:1 17:0.55836421 18:1 19:1 21:0.1875 22:0.78555059 23:0.6965214 24:0.005682773 25:0.053758554 26:0.15040232 27:0.32259011 28:1 29:0.57138276 30:1 31:1 33:0.1875 34:0.78914601 35:0.70141399 36:0.0056818728 37:0.053758554 38:0.14980765 39:0.3277649 40:1 41:0.5531854 42:1 43:1 45:0.1875 46:0.78813231 47:0.69588304 48:0.0056803315 49:0.053756457 50:0.14842874 51:0.31547463 
400 0 0:1 2:0.22833779 3:0.0016633404 4:0.014033956 6:1 7:0.51288873 9:0.79828382 10:1 11:0.79828382 13:0.056865465 14:0.25 15:1 16:1 17:1 18:0.99948269 19:1 21:0.1875 22:0.78555059 23:0.32926497 24:0.0017532086 25:0.014713298 26:0.13985205 27:0.24338497 28:1 29:1 30:0.99948269 31:1 33:0.1875 34:0.78914601 35:0.33734271 36:0.0017523047 37:0.014713298 38:0.13929772 39:0.24729688 40:1 41:1 42:0.99948269 43:1 45:0.1875 46:0.78813231 47:0.32506785 48:0.001750757 49:0.014711112 50:0.13801447 51:0.23799811 
0 400 0:1 2:0.43923542 3:0.0093075093 4:0.026907075 6:0.14617088 7:0.60553128 9:0.54781663 10:0.31635919 11:0.54781663 13:0.75 15:0.40496096 16:1 17:0.40875217 18:1 19:1 21:0.1875 22:0.78555059 23:0.75520885 24:0.086511299 25:0.14076966 26:0.45025367 27:0.61423218 28:1 29:0.41828242 30:1 31:1 33:0.1875 34:0.78914601 35:0.75959241 36:0.086510465 37:0.14076966 38:0.44851205 39:0.62405694 40:1 41:0.40496096 42:1 43:1 45:0.1875 46:0.78813231 47:0.75513911 48:0.086509049 49:0.14076775 50:0.44441453 51:0.60075158 
400 0 0:1 1:0.66666669 2:0.49945843 3:0.0081149824 4:0.098227143 6:0.27671209 7:0.4953734 9:0.23463936 11:0.23463936 13:0.068965517 15:0.51211953 16:1 17:0.51691395 18:1 19:1 21:0.1875 22:0.78555059 23:0.6885075 24:0.0012345918 25:0.091521338 26:0.027556591 27:0.2212038 28:1 29:0.52896607 30:1 31:1 33:0.1875 34:0.78914601 35:0.69346958 36:0.0012336875 37:0.091521338 38:0.027431784 39:0.22476207 40:1 41:0.51211953 42:1 43:1 45:0.1875 46:0.78813231 47:0.68779147 48:0.001232139 49:0.091519326 50:0.027166661 51:0.21630105 
400 0 0:1 1:0.66666669 2:0.54287446 3:0.0065307892 4:0.13819182 7:0.51670766 9:0.2960819 10:0.25070873 11:0.2960819 13:0.375 15:0.41706139 16:1 17:0.42096585 18:1 19:1 21:0.1875 22:0.78555059 23:0.83296442 24:0.00054740935 25:0.067854501 26:0.015894361 27:0.13290863 28:1 29:0.43078089 30:1 31:1 33:0.1875 34:0.78914601 35:0.83667362 36:0.00054650445 37:0.067854501 38:0.015814161 39:0.13505909 40:1 41:0.41706139 42:1 43:1 45:0.1875 46:0.78813231 47:0.83364815 48:0.00054495491 49:0.067852437 50:0.015654773 51:0.12993293 
400 0 0:1 2:0.27118093 3:0.013640475 4:0.10183383 6:0.10154754 7:0.66535997 9:0.46927872 10:0.31635919 11:0.46927872 13:0.61538464 15:0.43838903 16:1 17:0.4424932 18:1 19:1 21:0.1875 22:0.78555059 23:0.7785002 24:0.014672269 25:0.091061316 26:0.14097776 27:0.21452244 28:1 29:0.45281014 30:1 31:1 33:0.1875 34:0.78914601 35:0.78268176 36:0.014671378 37:0.091061316 38:0.14041913 39:0.21797417 40:1 41:0.43838903 42:1 43:1 45:0.1875 46:0.78813231 47:0.77865618 48:0.01466985 49:0.091059297 50:0.13912566 51:0.20976551 
400 0 1:1 2:0.21074238 3:0.048260041 4:0.12268379 5:1 7:0.67022991 9:0.38268033 10:0.1581796 11:0.38268033 13:0.625 15:0.23832725 16:1 17:0.24055843 18:1 19:1 21:0.1875 22:0.78555059 23:0.83296442 24:0.0078835422 25:0.095827028 26:0.02905928 27:0.1934555 28:1 29:0.24616717 30:1 31:1 33:0.1875 34:0.78914601 35:0.83667362 36:0.0078826435 37:0.095827028 38:0.028928725 39:0.19657134 40:1 41:0.23832725 42:1 43:1 45:0.1875 46:0.78813231 47:0.83364815 48:0.0078811049 49:0.095825024 50:0.028649976 51:0.18915837 
400 0 1:1 2:0.22997668 3:0.091414459 4:0.18059084 5:0.66666669 6:0.066118687 7:0.50323063 10:0.31635919 15:0.41706139 16:1 17:0.42096585 18:1 19:1 21:0.1875 22:0.78555059 23:0.79723972 24:0.010755272 25:0.061306085 26:0.021282632 27:0.096066758 28:1 29:0.43078089 30:1 31:1 33:0.1875 34:0.78914601 35:0.80125874 36:0.010754376 37:0.061306085 38:0.021181824 39:0.097629808 40:1 41:0.41706139 42:1 43:1 45:0.1875 46:0.78813231 47:0.79757726 48:0.010752842 49:0.061304007 50:0.020973582 51:0.093895122 
400 0 0:1 2:0.34615979 3:0.0044511594 4:0.063090287 6:0.13223737 7:0.34795788 9:0.49178141 10:0.44406623 11:0.49178141 13:0.60000002 15:0.46508086 16:1 17:0.46943489 18:1 19:1 21:0.1875 22:0.78555059 23:0.76244813 24:0.003664165 25:0.068027161 26:0.11624828 27:0.24621469 28:1 29:0.48038 30:1 31:1 33:0.1875 34:0.78914601 35:0.76676893 36:0.0036632631 37:0.068027161 38:0.11578423 39:0.25017172 40:1 41:0.46508086 42:1 43:1 45:0.1875 46:0.78813231 47:0.76244855 48:0.0036617182 49:0.06802509 50:0.11471498 51:0.24076608 
92.66528297151569 0 1:1 2:0.21074238 3:1 4:1 5:1 6:0.10154754 7:0.4079684 9:0.38268033 10:0.50141746 11:0.38268033 13:0.38461539 14:0.25 15:0.39847124 16:1 17:0.40220168 18:1 19:1 20:0.75 21:0.125 23:0.043059498 24:0.018582676 25:0.11293338 26:0.0033110597 27:0.03122142 28:1 29:0.41157922 30:1 31:1 32:0.75 33:0.125 35:0.053619497 36:0.018581787 37:0.11293338 38:0.0032789914 39:0.031750567 40:1 41:0.39847124 42:1 43:1 44:0.75 45:0.125 47:0.036089074 48:0.018580265 49:0.11293142 50:0.0032336898 51:0.03046504 
400 0 1:0.33333334 2:0.11395083 3:0.0068319798 4:0.22034687 5:0.33333334 6:0.02421527 7:0.50194281 10:0.1581796 15:0.44322643 16:1 17:0.44737583 18:1 19:1 21:0.1875 22:0.78555059 23:0.81975114 24:0.0015266966 25:0.11678208 26:0.039209194 27:0.14116701 28:1 29:0.45780665 30:1 31:1 33:0.1875 34:0.78914601 35:0.8235749 36:0.0015257926 37:0.11678208 38:0.039039817 39:0.14344916 40:1 41:0.44322643 42:1 43:1 45:0.1875 46:0.78813231 47:0.82030684 48:0.0015242446 49:0.11678013 50:0.038669046 51:0.13801107 
400 0 0:1 2:0.43062669 3:0.023389455 4:0.040028237 6:0.10154754 7:0.47959769 9:0.41560349 10:0.44406623 11:0.41560349 13:0.46153846 15:0.43336907 16:1 17:0.43742621 18:1 19:1 21:0.375 22:0.82515562 23:0.81111181 24:0.045637049 25:0.072049759 26:0.20889847 27:0.34633255 28:1 29:0.44762504 30:1 31:1 33:0.375 34:0.82808703 35:0.81501055 36:0.045636181 37:0.072049759 38:0.20808005 39:0.35188591 40:1 41:0.43336907 42:1 43:1 45:0.375 46:0.82726055 47:0.81158382 48:0.045634702 49:0.072047703 50:0.2061708 51:0.33869889 
400 0.5705290796864452 0:1 2:0.37732279 3:0.0062988424 4:0.013774868 6:0.5214172 7:0.77335334 9:0.8814649 10:0.52546126 11:0.8814649 13:0.70930231 14:0.25 15:0.70340812 16:1 17:0.70725322 18:0.97969544 19:1 20:0.5 21:0.25 24:0.017235249 25:0.039245211 26:0.25453198 27:0.44637257 28:1 29:0.7237432 30:0.97969544 31:1 32:0.5 33:0.25 36:0.017234359 37:0.039245211 38:0.25353903 39:0.45352098 40:1 41:0.70069343 42:0.97969544 43:1 44:0.5 45:0.25 48:0.017232837 49:0.03924308 50:0.25121602 51:0.43655553 
323.1296345773441 0 1:1 2:0.31781557 3:0.0044326065 4:0.019352216 5:0.66666669 6:0.066118687 7:0.76326799 9:0.44412285 10:0.1581796 11:0.44412285 13:0.63636363 14:0.25 15:0.43838903 16:1 17:0.4424932 18:1 19:1 20:0.5 21:0.25 23:0.12553026 24:0.009167253 25:0.051912211 26:0.21657053 27:0.43481016 28:1 29:0.45281014 30:1 31:1 32:0.5 33:0.25 35:0.13537499 36:0.0091663562 37:0.051912211 38:0.21572275 39:0.44177419 40:1 41:0.43838903 42:1 43:1 44:0.5 45:0.25 47:0.11935898 48:0.0091648195 49:0.05191011 50:0.21374394 51:0.42524546 
400 0 0:1 1:0.66666669 2:0.45864409 3:0.0014353346 4:0.026328269 6:0.02421527 7:0.48963302 15:0.42272237 16:1 17:0.42667985 18:1 19:1 21:0.375 22:0.82515562 23:0.85236466 24:0.0028198471 25:0.059623092 26:0.21039897 27:0.39650312 28:1 29:0.4366281 30:1 31:1 33:0.375 34:0.82808703 35:0.85590559 36:0.0028189444 37:0.059623092 38:0.20957482 39:0.40285638 40:1 41:0.42272237 42:1 43:1 45:0.375 46:0.82726055 47:0.85323638 48:0.0028173982 49:0.05962101 50:0.20765196 51:0.3877745 
400 0 1:1 2:0.26219243 3:0.0062751225 4:0.020787818 5:1 6:0.15930776 7:0.50583917 9:0.14804095 10:0.25070873 11:0.14804095 13:0.05882353 16:1 21:0.375 22:0.82515562 23:0.78101838 24:0.0042586434 25:0.020774119 26:0.10019509 27:0.23471346 28:1 33:0.375 34:0.82808703 35:0.78517807 36:0.0042577418 37:0.020774119 38:0.099792451 39:0.23848714 40:1 45:0.375 46:0.82726055 47:0.78119874 48:0.0042561982 49:0.020771949 50:0.09886875 51:0.22951588 
400 32.1650457956281 0:1 1:0.66666669 2:0.5652163 3:0.00359393 4:0.035576187 6:0.42016301 7:0.50499243 10:0.56706792 14:0.25 15:0.58935606 16:1 17:0.33361915 18:0.13253012 19:0.15277778 21:0.375 22:0.82515562 23:0.64933634 24:0.0050149886 25:0.063799843 26:0.16891764 27:0.34530455 28:1 29:0.5894599 30:0.86746991 31:1 33:0.125 36:0.019246299 37:0.05363619 38:0.35571447 39:0.31415832 40:1 41:0.57068676 42:0.86746991 43:1 45:0.125 48:0.019244779 49:0.053634092 50:0.35246152 51:0.30237386 
400 0 0:1 2:0.32432175 3:0.0011175196 4:0.11441682 6:0.08451508 7:0.66743159 9:0.44412285 10:0.31635919 11:0.44412285 13:0.58333331 15:0.09219756 16:1 17:0.093060702 18:1 19:1 21:0.375 22:0.82515562 23:0.82009119 24:0.0011759753 25:0.07237272 26:0.1401865 27:0.16395442 28:1 29:0.09523046 30:1 31:1 33:0.375 34:0.82808703 35:0.82391202 36:0.001175071 37:0.07237272 38:0.1396309 39:0.16659988 40:1 41:0.09219756 42:1 43:1 45:0.375 46:0.82726055 47:0.82065016 48:0.0011735223 49:0.072370663 50:0.13834462 51:0.16030113 
400 0 0:1 2:0.4091239 3:0.059303727 4:0.11369883 6:0.15930776 7:0.60679871 9:0.46927872 10:0.52546126 11:0.46927872 13:0.47058824 15:0.4906688 16:1 17:0.49526238 18:1 19:1 21:0.375 22:0.82515562 23:0.78101838 24:0.0042081899 25:0.10719778 26:0.013061985 27:0.22305834 28:1 29:0.50680965 30:1 31:1 33:0.375 34:0.82808703 35:0.78517807 36:0.0042072884 37:0.10719778 38:0.012992621 39:0.22664617 40:1 41:0.4906688 42:1 43:1 45:0.375 46:0.82726055 47:0.78119874 48:0.0042057447 49:0.10719579 50:0.012858911 51:0.21811512 
400 0 0:1 1:0.66666669 2:1 3:0.26541886 4:0.45018372 6:0.02421527 7:0.34928146 9:0.38268033 10:0.31635919 11:0.38268033 13:0.55555558 15:0.43336907 16:1 17:0.43742621 18:1 19:1 21:0.375 22:0.82515562 23:0.85236466 24:0.019895302 25:0.094161019 26:0.013730457 27:0.060110852 28:1 29:0.44762504 30:1 31:1 33:0.375 34:0.82808703 35:0.85590559 36:0.019894414 37:0.094161019 38:0.013658535 39:0.061100621 40:1 41:0.43336907 42:1 43:1 45:0.375 46:0.82726055 47:0.85323638 48:0.019892896 49:0.094159007 50:0.013518766 51:0.05872396 
400 0 1:1 2:0.35911694 3:0.28691444 4:0.94084972 5:0.66666669 6:0.43981877 7:0.71680975 9:0.51213759 10:0.89726192 11:0.51213759 13:0.16666667 15:0.6432882 16:1 17:0.64931059 18:1 19:1 21:0.375 22:0.82515562 23:0.63958073 24:0.0040555145 25:0.084885865 26:0.0024759257 27:0.024172561 28:1 29:0.66444957 30:1 31:1 33:0.375 34:0.82808703 35:0.64496714 36:0.0040546129 37:0.084885865 38:0.0024470522 39:0.024589319 40:1 41:0.6432882 42:1 43:1 45:0.375 46:0.82726055 47:0.6383906 48:0.0040530688 49:0.084883839 50:0.002409322 51:0.02357002 
400 0 0:1 2:0.47484389 3:0.0061176992 4:0.05488807 6:0.21564487 7:0.46704289 9:0.34374046 10:0.25070873 11:0.34374046 13:0.18181819 15:0.5531854 16:1 17:0.55836421 18:1 19:1 21:0.375 22:0.82515562 23:0.75209713 24:0.044544991 25:0.085053615 26:0.40820715 27:0.31517747 28:1 29:0.57138276 30:1 31:1 33:0.375 34:0.82808703 35:0.75650769 36:0.044544119 37:0.085053615 38:0.40662637 39:0.32023409 40:1 41:0.5531854 42:1 43:1 45:0.375 46:0.82726055 47:0.75199723 48:0.04454264 49:0.085051581 50:0.40291005 51:0.30822375 
400 0 1:1 2:0.26219243 3:0.0036686691 4:0.030239195 5:1 6:0.17173414 7:0.49769372 9:0.34374046 10:0.54721147 11:0.34374046 13:0.22222222 15:0.52810031 16:1 17:0.53304428 18:1 19:1 21:0.375 22:0.82515562 23:0.77460665 24:0.013056342 25:0.060120307 26:0.29298633 27:0.36745989 28:1 29:0.5454725 30:1 31:1 33:0.375 34:0.82808703 35:0.77882195 36:0.013055448 37:0.060120307 38:0.29184628 39:0.37335011 40:1 41:0.52810031 42:1 43:1 45:0.375 46:0.82726055 47:0.77472484 48:0.013053917 49:0.060118221 50:0.28917465 51:0.35936514 
400 0 0:1 1:0.66666669 2:0.5622825 3:0.0036407714 4:0.083756536 6:0.20542841 7:0.46228546 9:0.34374046 10:0.40888831 11:0.34374046 13:0.19047619 15:0.52556664 16:1 17:0.53048694 18:1 19:1 21:0.375 22:0.82515562 23:0.75731528 24:0.0034909057 25:0.096584342 26:0.13016266 27:0.25808734 28:1 29:0.5428555 30:1 31:1 33:0.375 34:0.82808703 35:0.76168054 36:0.0034900035 37:0.096584342 38:0.12964539 39:0.26223367 40:1 41:0.52556664 42:1 43:1 45:0.375 46:0.82726055 47:0.75726599 48:0.0034884585 49:0.096582338 50:0.12844999 51:0.2523796 
90.49600700313242 0 0:1 1:0.66666669 2:1 3:0.0025708308 4:0.012738559 6:0.23480867 7:0.33916152 9:0.23463936 10:0.1581796 11:0.23463936 13:0.083333336 14:0.25 15:0.56124926 16:1 17:0.56451458 18:0.98507464 19:1 20:0.25 21:0.3125 23:0.057199743 24:0.012766274 25:0.050230194 26:0.3449012 27:0.52767259 28:1 29:0.57767648 30:0.98507464 31:1 32:0.25 33:0.3125 35:0.067637101 36:0.012765381 37:0.050230194 38:0.34356257 39:0.53611726 40:1 41:0.55927867 42:0.98507464 43:1 44:0.25 45:0.3125 47:0.050366338 48:0.012763849 49:0.050228085 50:0.34042025 51:0.51608115 
400 0 0:1 2:0.23830605 3:0.020760851 4:0.077025369 6:0.31214094 7:0.4724372 9:0.6051119 10:0.47453877 11:0.6051119 13:0.47058824 14:0.25 15:0.5063355 16:1 17:0.46530351 18:0.70454544 19:1 21:0.125 24:0.013932128 25:0.061831798 26:0.099072099 27:0.19804169 28:1 29:0.4761523 30:0.70454544 31:1 33:0.125 36:0.013931234 37:0.061831798 38:0.098673753 39:0.20123065 40:1 41:0.46098781 42:0.70454544 43:1 45:0.125 48:0.013929705 49:0.06182972 50:0.09776023 51:0.19364445 
400 0 0:1 2:0.36673579 3:0.00085145334 4:0.052783228 6:0.066118687 7:0.51357913 14:0.25 15:0.3411715 16:1 17:0.1861214 18:0.25 19:0.33333334 21:0.3125 22:0.10256203 23:0.23752512 25:0.042848948 26:0.0023904811 27:0.20029819 28:1 29:0.19046092 30:0.25 31:0.33333334 33:0.3125 34:0.1176083 35:0.24639848 37:0.042848948 38:0.0023619342 39:0.20352311 40:1 41:0.30627367 42:0.75 43:1 45:0.375 46:0.82726055 47:0.83050597 48:1 49:1 50:1 51:0.994874 
400 0 0:1 1:0.66666669 2:0.5805217 3:0.030140044 4:0.051516999 6:0.41602182 7:0.25293052 9:0.69585758 10:0.585334 11:0.69585758 13:0.46296296 15:0.66469407 16:1 17:0.6709168 18:1 19:1 21:0.875 22:0.88459325 23:0.70031828 24:0.020618532 25:0.069069304 26:0.10053644 27:0.28632018 28:1 29:0.68655962 30:1 31:1 33:0.875 34:0.88652813 35:0.7051779 36:0.020617645 37:0.069069304 38:0.1001325 39:0.29091668 40:1 41:0.66469407 42:1 43:1 45:0.875 46:0.88598263 47:0.69971663 48:0.020616127 49:0.06906724 50:0.099205695 51:0.27999628 
0 400 0:1 2:0.81995463 3:0.00018314447 4:0.0093159741 6:0.066118687 7:0.27188709 9:0.23463936 10:0.47453877 11:0.23463936 13:0.18181819 15:0.3305248 16:1 17:0.33361915 18:1 19:1 21:0.875 22:0.88459325 23:0.87879825 24:0.0093377708 25:0.066040114 26:0.75980085 27:0.68434846 28:1 29:0.34139764 30:1 31:1 33:0.875 34:0.88652813 35:0.88210988 36:0.0093368739 37:0.066040114 38:0.75687528 39:0.69529122 40:1 41:0.3305248 42:1 43:1 45:0.875 46:0.88598263 47:0.87992609 48:0.0093353381 49:0.066038042 50:0.74997121 51:0.66933763 
400 0 1:0.33333334 2:0.28129262 3:0.0019863271 4:0.073247574 5:0.33333334 6:0.15930776 7:0.53587711 9:0.14804095 10:0.40888831 11:0.14804095 13:0.05882353 15:0.43336907 16:1 17:0.43742621 18:1 19:1 21:0.875 22:0.88459325 23:0.8299613 24:0.0018190984 25:0.077574678 26:0.12631392 27:0.24300665 28:1 29:0.44762504 30:1 31:1 33:0.875 34:0.88652813 35:0.83369654 36:0.0018181945 37:0.077574678 38:0.12581138 39:0.24691252 40:1 41:0.43336907 42:1 43:1 45:0.875 46:0.88598263 47:0.83061594 48:0.0018166469 49:0.077572629 50:0.12465087 51:0.23762804 
400 0 1:0.33333334 2:0.30264875 3:0.018499324 4:0.16567945 5:0.33333334 6:0.066118687 7:0.49340641 9:0.14804095 10:0.40888831 11:0.14804095 13:0.090909094 15:0.36879024 16:1 17:0.37224281 18:1 19:1 21:0.875 22:0.88459325 23:0.87879825 24:0.014303479 25:0.11303666 26:0.11053653 27:0.17377035 28:1 29:0.38092184 30:1 31:1 33:0.875 34:0.88652813 35:0.88210988 36:0.014302586 37:0.11303666 38:0.11009433 39:0.17657232 40:1 41:0.36879024 42:1 43:1 45:0.875 46:0.88598263 47:0.87992609 48:0.014301058 49:0.1130347 50:0.10907687 51:0.16990285 
400 0 1:1 2:0.34954733 3:0.0090775834 4:0.17029765 5:0.66666669 6:0.43601984 7:0.52907068 9:0.14804095 10:0.47453877 11:0.14804095 13:0.016949153 15:0.6299758 16:1 17:0.63587356 18:1 19:1 21:0.875 22:0.88459325 23:0.69038719 24:0.0036476881 25:0.11048367 26:0.065328248 27:0.16689299 28:1 29:0.65069926 30:1 31:1 33:0.875 34:0.88652813 35:0.69533294 36:0.0036467859 37:0.11048367 38:0.065058962 39:0.1695853 40:1 41:0.6299758 42:1 43:1 45:0.875 46:0.88598263 47:0.68968934 48:0.0036452413 49:0.11048169 50:0.064451389 51:0.16317557 
400 0 0:1 2:0.40549612 3:0.010403137 4:0.038287077 6:0.46478638 7:0.82286125 9:0.89481789 10:0.25070873 11:0.89481789 13:0.97014928 15:0.60572469 16:1 17:0.61139536 18:1 19:1 21:0.875 22:0.88459325 23:0.67612773 24:0.0085748853 25:0.060783911 26:0.11610323 27:0.31978506 28:1 29:0.62565041 30:1 31:1 33:0.875 34:0.88652813 35:0.68119711 36:0.0085739875 37:0.060783911 38:0.11563974 39:0.32491511 40:1 41:0.60572469 42:1 43:1 45:0.875 46:0.88598263 47:0.67529172 48:0.0085724499 49:0.060781829 50:0.1145718 51:0.31273079 
400 0 0:1 1:0.66666669 2:0.86056089 3:0.0022783007 4:0.12129121 6:0.14617088 7:0.87550485 9:0.6051119 11:0.6051119 13:1 15:0.43336907 16:1 17:0.43742621 18:1 19:1 21:0.875 22:0.88459325 23:0.83676243 24:0.0019109991 25:0.098690979 26:0.11831185 27:0.19962732 28:1 29:0.44762504 30:1 31:1 33:0.875 34:0.88652813 35:0.84043866 36:0.0019100955 37:0.098690979 38:0.11783992 39:0.20284157 40:1 41:0.43336907 42:1 43:1 45:0.875 46:0.88598263 47:0.83748299 48:0.0019085479 49:0.098688982 50:0.11675195 51:0.19519548 
400 0 1:1 2:0.36173037 3:0.079192892 4:0.16832598 5:0.66666669 6:0.3370119 7:0.53810567 9:0.46927872 10:0.63271838 11:0.46927872 13:0.21052632 15:0.61776423 16:1 17:0.62354767 18:1 19:1 21:0.875 22:0.88459325 23:0.7397303 24:0.043300658 25:0.11014298 26:0.08405932 27:0.16805355 28:1 29:0.63808596 30:1 31:1 33:0.875 34:0.88652813 35:0.74424809 36:0.04329979 37:0.11014298 38:0.083718389 39:0.17076437 40:1 41:0.61776423 42:1 43:1 45:0.875 46:0.88598263 47:0.7395106 48:0.043298308 49:0.110141 50:0.082940988 51:0.1643108 
400 0 0:1 1:0.66666669 2:1 3:0.0011153277 4:0.36743745 6:0.08451508 7:0.49653667 15:0.43838903 16:1 17:0.4424932 18:1 19:1 21:0.875 22:0.88459325 23:0.8690365 24:0.00036015344 25:0.10457618 26:0.056522422 27:0.080988392 28:1 29:0.45281014 30:1 31:1 33:0.875 34:0.88652813 35:0.87243283 36:0.00035924837 37:0.10457618 38:0.056286819 39:0.082311042 40:1 41:0.43838903 42:1 43:1 45:0.875 46:0.88598263 47:0.87006974 48:0.00035769853 49:0.10457419 50:0.05575908 51:0.079145849 
400 0 1:1 2:0.34340161 3:0.14128211 4:0.29723346 5:1 7:0.34692794 9:0.2960819 10:0.31635919 11:0.2960819 13:0.5 14:0.25 15:0.09219756 16:1 17:0.093060702 18:1 19:1 21:0.9375 23:0.20758148 24:0.018460773 25:0.058368031 26:0.023504414 27:0.056875136 28:1 29:0.09523046 30:1 31:1 33:0.9375 35:0.21671458 36:0.018459883 37:0.058368031 38:0.023395106 39:0.057813317 40:1 41:0.09219756 42:1 43:1 45:0.9375 47:0.20220527 48:0.018458363 49:0.058365945 50:0.023166722 51:0.055558864 
400 0 1:0.33333334 2:0.31189638 3:0.0019294483 4:0.10024818 5:0.33333334 6:0.44355598 7:0.4810594 9:0.2960819 10:0.25070873 11:0.2960819 13:0.049180329 15:0.68924445 16:1 17:0.69569701 18:1 19:1 21:1 22:0.89226842 23:0.6929667 24:0.0009754959 25:0.091480732 26:0.080146655 27:0.21780187 28:1 29:0.71191758 30:1 31:1 33:1 34:0.89407462 35:0.6978901 36:0.00097459136 37:0.091480732 38:0.079820685 39:0.22130588 40:1 41:0.68924445 42:1 43:1 45:1 46:0.89356536 47:0.69229388 48:0.00097304251 49:0.09147872 50:0.079078756 51:0.21297337 
400 0 1:1 2:0.34340161 3:0.010897779 4:0.14178325 5:1 6:0.18352303 7:0.50160778 15:0.52298379 16:1 17:0.52787989 18:1 19:1 21:1 22:0.89226842 23:0.82380378 24:0.0011857896 25:0.072840005 26:0.020052513 27:0.13801183 28:1 29:0.54018766 30:1 31:1 33:1 34:0.89407462 35:0.82759243 36:0.0011848853 37:0.072840005 38:0.01995641 39:0.14024365 40:1 41:0.52298379 42:1 43:1 45:1 46:0.89356536 47:0.82439876 48:0.0011833366 49:0.072837956 50:0.019759322 51:0.13492474 
400 0 1:0.33333334 2:0.30033576 3:0.0044144378 4:0.077903651 5:0.33333334 6:0.20542841 7:0.2716189 9:0.62886721 10:0.31635919 11:0.62886721 13:0.85714287 15:0.46905166 16:1 17:0.47344288 18:1 19:1 21:1 22:0.89226842 23:0.81257623 24:0.004608064 25:0.064868167 26:0.13826156 27:0.20358795 28:1 29:0.48448142 30:1 31:1 33:1 34:0.89407462 35:0.81646222 36:0.0046071629 37:0.064868167 38:0.13771331 39:0.20686534 40:1 41:0.46905166 42:1 43:1 45:1 46:0.89356536 47:0.81306243 48:0.0046056197 49:0.064866096 50:0.13644448 51:0.19906966 
400 0 0:1 2:0.39984572 3:0.052612867 4:0.11324472 6:0.18352303 7:0.53922498 9:0.23463936 10:0.31635919 11:0.23463936 13:0.10526316 15:0.4906688 16:1 17:0.49526238 18:1 19:1 21:1 22:0.89226842 23:0.82380378 24:0.031429779 25:0.10780354 26:0.090293549 27:0.22465454 28:1 29:0.50680965 30:1 31:1 33:1 34:0.89407462 35:0.82759243 36:0.0314289 37:0.10780354 38:0.089928776 39:0.22826782 40:1 41:0.4906688 42:1 43:1 45:1 46:0.89356536 47:0.82439876 48:0.031427398 49:0.10780156 50:0.089094847 51:0.21967648 
400 0 0:1 2:0.39055178 3:0.025281003 4:0.10219298 6:0.34283078 7:0.6443547 9:0.49178141 10:0.77616996 11:0.49178141 13:0.23076923 15:0.60145652 16:1 17:0.60708725 18:1 19:1 21:1 22:0.89226842 23:0.74313593 24:0.030110931 25:0.10568805 26:0.15137151 27:0.23873173 28:1 29:0.62124181 30:1 31:1 33:1 34:0.89407462 35:0.74762422 36:0.030110052 37:0.10568805 38:0.15077312 39:0.24256946 40:1 41:0.60145652 42:1 43:1 45:1 46:0.89356536 47:0.74294925 48:0.030108549 49:0.10568607 50:0.14938542 51:0.23344643 
400 0 1:1 2:0.2976428 3:0.022000743 4:0.17006947 5:0.66666669 6:0.1947366 7:0.77979374 9:0.63982236 11:0.63982236 13:0.94999999 15:0.40496096 16:1 17:0.40875217 18:1 19:1 21:1 22:0.89226842 23:0.81804961 24:0.010892875 25:0.085785858 26:0.077582702 27:0.13567942 28:1 29:0.41828242 30:1 31:1 33:1 34:0.89407462 35:0.82188815 36:0.010891979 37:0.085785858 38:0.077266552 39:0.13787405 40:1 41:0.40496096 42:1 43:1 45:1 46:0.89356536 47:0.81858879 48:0.010890445 49:0.085783832 50:0.076547869 51:0.13264324 
400 0 0:1 2:0.5206418 3:0.0060104402 4:0.046281606 6:0.23480867 7:0.16572331 9:0.51213759 10:0.47453877 11:0.51213759 13:0.41666666 15:0.53302729 16:1 17:0.53801739 18:1 19:1 21:1 22:0.89226842 23:0.79759663 24:0.0042266995 25:0.076560788 26:0.10301153 27:0.3285706 28:1 29:0.55056155 30:1 31:1 33:1 34:0.89407462 35:0.80161256 36:0.004225798 37:0.076560788 38:0.10259811 39:0.33384076 40:1 41:0.53302729 42:1 43:1 45:1 46:0.89356536 47:0.79793769 48:0.0042242543 49:0.076558739 50:0.10164887 51:0.32132459 
400 0 1:0.33333334 2:0.3492972 3:0.0085104713 4:0.067238644 5:0.33333334 6:0.13223737 7:0.17986284 9:0.5921638 11:0.5921638 13:1 15:0.37685412 16:1 17:0.38038218 18:1 19:1 21:1 22:0.89226842 23:0.85032308 24:0.012294913 25:0.033515826 26:0.17262933 27:0.1361102 28:1 29:0.38925096 30:1 31:1 33:1 34:0.89407462 35:0.85388172 36:0.012294019 37:0.033515826 38:0.17194963 39:0.13831171 40:1 41:0.37685412 42:1 43:1 45:1 46:0.89356536 47:0.85117501 48:0.012292487 49:0.033513684 50:0.17036921 51:0.13306463 
64.97938818967737 0 0:1 2:0.28188926 3:0.00012603089 4:0.0042945952 6:0.4508529 7:0.49885812 14:0.5 15:0.69651473 16:1 17:0.50181288 18:0.21925133 19:0.28671327 21:1 22:0.91618735 23:0.70903909 24:9.2888258e-05 25:0.048973769 26:0.12232106 27:0.79396254 28:1 29:0.19046092 30:0.01604278 31:0.020979021 33:1 34:0.15681688 35:0.09433303 36:0.00018504552 37:0.016282795 38:0.18387218 39:0.49949589 41:0.6610496 42:0.7647059 43:1 44:1 45:1 46:0.067807011 47:0.016004259 48:0.0011447916 49:0.037592962 50:0.43910894 51:0.69997549 
400 0 0:1 1:0.66666669 2:0.58241242 3:0.0036526844 4:0.12768544 6:0.58950877 7:0.47462952 9:0.23463936 10:0.31635919 11:0.23463936 13:0.017241379 15:0.7745406 16:1 17:0.78179175 18:1 19:1 21:1 22:0.91618735 23:0.64058459 24:0.00074171944 25:0.096424825 26:0.036403526 27:0.1884374 28:1 29:0.80001962 30:1 31:1 33:1 34:0.91759259 35:0.64596224 36:0.00074081472 37:0.096424825 38:0.03624488 39:0.19147323 40:1 41:0.7745406 42:1 43:1 45:1 46:0.91719639 47:0.63940412 48:0.00073926547 49:0.096422821 50:0.035899546 51:0.18424979 
0 156.5116572513142 0:1 1:0.66666669 2:0.45994994 3:0.0065958393 4:0.018971598 6:0.50499362 7:0.11959404 9:0.87087208 10:0.52546126 11:0.87087208 13:0.72500002 14:0.5 15:0.68698347 16:1 17:0.26125443 18:0.034482758 19:0.036144577 21:1 22:0.91618735 23:0.68224782 24:0.07412757 25:0.12916028 26:0.48365033 27:0.68657416 28:1 29:0.2673457 30:0.034482758 31:0.036144577 33:1 34:0.91759259 35:0.68726414 36:0.074126728 37:0.12916028 38:0.48178098 39:0.69755238 41:0.68075955 42:0.954023 43:1 45:1 48:0.20034969 49:0.3274948 50:0.65690827 51:0.95411915 
400 0 1:0.33333334 2:0.36765054 3:0.0086144805 4:0.040575135 5:0.33333334 6:0.23480867 7:0.50167745 9:0.34374046 10:0.36728165 11:0.34374046 13:0.16666667 15:0.5446009 16:1 17:0.54969943 18:1 19:1 21:1 22:0.91618735 23:0.81729233 24:0.021263061 25:0.07893084 26:0.24013771 27:0.36338171 28:1 29:0.56251591 30:1 31:1 33:1 34:0.91759259 35:0.82113743 36:0.021262174 37:0.07893084 38:0.2391998 39:0.36920691 40:1 41:0.5446009 42:1 43:1 45:1 46:0.91719639 47:0.81782418 48:0.021260658 49:0.078928798 50:0.23700731 51:0.35537595 
156.4246263074747 0 0:1 1:0.66666669 2:0.90161133 3:0.010127706 4:0.018924711 6:0.11740433 7:0.68899167 9:0.41560349 10:0.31635919 11:0.41560349 13:0.42857143 14:0.25 15:0.35102886 16:1 21:1 22:0.91618735 23:0.87776023 24:0.009897612 25:0.037671566 26:0.13165154 27:0.36593565 28:1 33:1 34:0.91759259 35:0.88108087 36:0.0098967161 37:0.037671566 38:0.13112856 39:0.37180153 40:1 41:0.35102886 42:1 43:1 45:1 46:0.32529786 47:0.38144478 48:0.025884707 49:0.096590638 50:0.2417586 51:0.59025866 
0 372.9747819062821 0:1 2:0.3241033 3:0.022430757 4:0.04501611 6:0.20542841 7:0.48526344 9:0.41560349 10:0.44406623 11:0.41560349 13:0.2857143 15:0.48029888 16:1 17:0.48479539 18:1 19:1 21:1 22:0.91618735 23:0.83227235 24:0.10426406 25:0.32769984 26:0.334295 27:0.71488708 28:1 29:0.49609864 30:1 31:1 33:1 34:0.91759259 35:0.83598751 36:0.10426324 37:0.32769984 38:0.33299696 39:0.72631681 40:1 41:0.48029888 42:1 43:1 45:1 46:0.91719639 47:0.83294934 48:0.10426185 49:0.32769835 50:0.32995078 51:0.69920969 
400 0 1:1 2:0.38691643 3:0.26821414 4:0.49009272 5:0.66666669 6:0.27671209 7:0.46116179 9:0.49178141 10:0.585334 11:0.49178141 13:0.31034482 15:0.57428193 16:1 17:0.57965827 18:1 19:1 21:1 22:0.91618735 23:0.79606324 24:0.026356883 25:0.12125092 26:0.017875098 27:0.070713609 28:1 29:0.59317327 30:1 31:1 33:1 34:0.91759259 35:0.80009246 36:0.026356002 37:0.12125092 38:0.017787322 39:0.071872428 40:1 41:0.57428193 42:1 43:1 45:1 46:0.91719639 47:0.7963894 48:0.026354494 49:0.12124898 50:0.017609976 51:0.069095314 
400 0 1:0.33333334 2:0.38841507 3:0.016538264 4:0.1389865 5:0.33333334 6:0.08451508 7:0.45085853 9:0.2960819 10:0.40888831 11:0.2960819 13:0.25 15:0.39847124 16:1 17:0.40220168 18:1 19:1 21:1 22:0.91618735 23:0.89505434 24:0.039162174 25:0.095646605 26:0.23442911 27:0.17512049 28:1 29:0.41157922 30:1 31:1 33:1 34:0.91759259 35:0.89822495 36:0.039161298 37:0.095646605 38:0.23351304 39:0.17794397 40:1 41:0.39847124 42:1 43:1 45:1 46:0.91719639 47:0.89633971 48:0.039159812 49:0.095644601 50:0.2313723 51:0.17122351 
400 0 0:1 2:0.40198049 3:0.0012920268 4:0.018759055 6:0.29861748 7:0.19499581 9:0.72642076 10:0.25070873 11:0.72642076 13:0.90625 15:0.60000283 16:1 17:0.60561997 18:1 19:1 21:1 22:0.92458439 23:0.79193467 24:0.00088703446 25:0.051934324 26:0.10245952 27:0.44223163 28:1 29:0.61974031 30:1 31:1 33:1 34:0.92584878 35:0.79599971 36:0.00088612986 37:0.051934324 38:0.10204822 39:0.449314 40:1 41:0.60000283 42:1 43:1 45:1 46:0.92549235 47:0.79222083 48:0.00088458083 49:0.051932223 50:0.10110398 51:0.43250495 
0 400 0:1 1:0.66666669 2:1 3:0.004439129 4:0.027244192 6:0.37989542 7:0.63367784 9:0.54781663 10:0.68364084 11:0.54781663 13:0.26086956 15:0.62029791 16:1 17:0.62610501 18:1 19:1 21:1 22:0.92458439 23:0.75122637 24:0.14054482 25:0.5694384 26:0.6732356 27:1 28:1 29:0.64070302 30:1 31:1 33:1 34:0.92584878 35:0.75564444 36:0.14054403 37:0.5694384 38:0.67064106 39:1 40:1 41:0.62029791 42:1 43:1 45:1 46:0.92549235 47:0.75111806 48:0.1405427 49:0.56943744 50:0.66452187 51:1 
400 0 0:1 2:0.46878672 3:0.0041201627 4:0.026635885 6:0.21564487 7:0.52511853 9:0.34374046 10:0.40888831 11:0.34374046 13:0.18181819 15:0.47290739 16:1 17:0.47733471 18:1 19:1 21:1 22:0.92458439 23:0.83396822 24:0.0036173323 25:0.056772757 26:0.12198377 27:0.38265625 28:1 29:0.488464 30:1 31:1 33:1 34:0.92584878 35:0.83766866 36:0.0036164301 37:0.056772757 38:0.12149779 39:0.38878873 40:1 41:0.47290739 42:1 43:1 45:1 46:0.92549235 47:0.83466166 48:0.0036148853 49:0.056770667 50:0.12037653 51:0.37422982 
400 0 1:1 2:0.3336876 3:0.00081356853 4:0.018451247 5:0.66666669 6:0.13223737 7:0.54064298 15:0.38445693 16:1 17:0.38805616 18:1 19:1 21:1 22:0.92458439 23:0.87693489 24:0.0006347936 25:0.048927322 26:0.11371816 27:0.4316723 28:1 29:0.39710388 30:1 31:1 33:1 34:0.92584878 35:0.88026273 36:0.00063388876 37:0.048927322 38:0.11326379 39:0.43858632 40:1 41:0.38445693 42:1 43:1 45:1 46:0.92549235 47:0.87804472 48:0.00063233933 49:0.048925214 50:0.11221749 51:0.42217612 
0 400 0:1 2:0.66287136 3:0.0080212951 4:0.011567757 6:0.08451508 7:0.84402072 9:0.44412285 10:0.36728165 11:0.44412285 13:0.58333331 15:0.3411715 16:1 17:0.34436551 18:1 19:1 21:1 22:0.92458439 23:0.90196943 24:0.061173867 25:0.096501902 26:0.41609767 27:0.73794258 28:1 29:0.35239458 30:1 31:1 33:1 34:0.92584878 35:0.90508008 36:0.061173014 37:0.096501902 38:0.41448668 39:0.74973994 40:1 41:0.3411715 42:1 43:1 45:1 46:0.92549235 47:0.9033218 48:0.061171558 49:0.096499905 50:0.41069886 51:0.72176206 
400 0 0:1 2:0.40905824 3:0.01010268 4:0.072351359 6:0.43981877 7:0.52525222 9:0.2960819 10:0.54721147 11:0.2960819 13:0.050000001 15:0.59704685 16:1 17:0.60263634 18:1 19:1 21:1 22:0.92458439 23:0.72142416 24:0.014222756 25:0.088310383 26:0.16967247 27:0.26855659 28:1 29:0.61668712 30:1 31:1 33:1 34:0.92584878 35:0.72610074 36:0.014221863 37:0.088310383 38:0.16900408 39:0.27286986 40:1 41:0.59704685 42:1 43:1 45:1 46:0.92549235 47:0.72102708 48:0.014220335 49:0.088308364 50:0.16745046 51:0.26262039 
240.5681417578523 0 1:1 2:0.38649267 3:0.042216171 4:0.10997166 5:1 7:0.3162657 9:0.2960819 10:0.36728165 11:0.2960819 13:0.375 15:0.3411715 16:1 17:0.34436551 18:1 19:1 21:1 22:0.92458439 23:0.94745964 24:0.053354096 25:0.10020497 26:0.15765926 27:0.21749884 28:1 29:0.35239458 30:1 31:1 33:1 34:0.92584878 35:0.95017576 36:0.053353235 37:0.10020497 38:0.15703683 39:0.22099802 40:1 41:0.3411715 42:1 43:1 45:1 46:0.92549235 47:0.94925284 48:0.053351767 49:0.10020298 50:0.15559213 51:0.21267694 
400 0 1:1 2:0.38048223 3:0.0058345087 4:0.33526051 5:0.66666669 6:0.046120655 7:0.50052983 15:0.45240337 16:1 17:0.45663869 18:1 19:1 21:1 22:0.92458439 23:0.92242438 24:0.00034178625 25:0.10674489 26:0.011430656 27:0.089944661 28:1 29:0.46728545 30:1 31:1 33:1 34:0.92584878 35:0.92535764 36:0.00034088118 37:0.10674489 38:0.011367531 39:0.0914101 40:1 41:0.45240337 42:1 43:1 45:1 46:0.92549235 47:0.92397499 48:0.00033933131 49:0.1067429 50:0.011248613 51:0.087906644 
400 0 0:1 1:0.66666669 2:0.70808458 3:0.0041803569 4:0.03313287 6:0.1947366 7:0.16151759 9:0.57837981 10:0.40888831 11:0.57837981 13:0.69999999 15:0.46508086 16:1 17:0.46943489 18:1 19:1 21:1 22:0.92458439 23:0.84466058 24:0.0026790949 25:0.069239229 26:0.095992006 27:0.37893617 28:1 29:0.48038 30:1 31:1 33:1 34:0.92584878 35:0.84826827 36:0.002678192 37:0.069239229 38:0.095605433 39:0.38500935 40:1 41:0.46508086 42:1 43:1 45:1 46:0.92549235 47:0.84545761 48:0.0026766458 49:0.069237165 50:0.094719842 51:0.37059096 
400 0 0:1 2:0.24318533 3:0.00013832351 4:0.024819786 6:0.93801469 7:0.51001322 9:0.87446171 10:1 11:0.87446171 13:0.11090226 14:0.75 15:0.99218875 16:1 17:1 18:0.99481267 19:1 21:1 22:0.92458439 23:0.4768908 24:0.0011829617 25:0.069222488 26:0.43440244 27:0.44598356 28:1 29:0.15093671 30:0.0011527378 31:0.0011587485 33:1 36:0.0098950258 37:0.022476867 38:0.81974238 39:0.22220163 40:1 41:0.99149746 42:0.99481267 43:1 45:1 46:0.92549235 47:0.47412419 48:0.0011805088 49:0.069220424 50:0.42876765 51:0.43617502 
0 27.28924844814584 0:1 2:0.23530316 3:0.0009241759 4:0.0007976999 6:0.13223737 7:0.51239043 10:0.63271838 14:0.5 15:0.40496096 17:0.29499546 18:0.40000001 19:0.72727275 20:1 21:1 22:0.056447662 23:0.16737409 25:0.30203846 26:0.0013925567 27:1 28:1 29:0.09523046 30:0.050000001 31:0.090909094 33:1 34:0.19827871 35:0.2782459 36:0.0006700732 37:0.01771123 38:0.10710432 39:0.82358193 40:1 41:0.3305248 42:0.55000001 43:1 45:1 46:0.93486661 47:0.88593423 48:0.0048940922 49:0.55145657 50:0.3507944 51:1 
330.9743081210084 0 1:0.33333334 2:0.064928606 3:4.7531088e-05 4:0.017016051 5:0.33333334 6:0.79006416 7:0.50379455 14:0.5 15:0.89798403 16:1 17:0.90417421 18:0.98360658 19:1 21:1 22:0.93407291 23:0.55693871 24:0.00073785475 25:0.069596253 26:0.53334141 27:0.54131061 28:1 29:0.2673457 30:0.0070257611 31:0.0071428572 33:1 34:0.19827871 36:0.0016086132 37:0.014968274 38:0.67174995 39:0.21900722 40:1 41:0.89578801 42:0.98360658 43:1 45:1 46:0.93486661 47:0.55494773 48:0.00073540077 49:0.06959419 50:0.52643114 51:0.52942157 
400 0 0:1 2:0.37114406 3:0.0071045049 4:0.059908111 6:0.34283078 7:0.20134193 9:0.71168542 10:0.47453877 11:0.71168542 13:0.69230771 15:0.57949877 16:1 17:0.58492398 18:1 19:1 21:1 22:0.93407291 23:0.77755624 24:0.0080498122 25:0.074754104 26:0.14635403 27:0.27268776 28:1 29:0.59856176 30:1 31:1 33:1 34:0.93517822 35:0.78174597 36:0.0080489134 37:0.074754104 38:0.14577483 39:0.27706692 40:1 41:0.57949877 42:1 43:1 45:1 46:0.93486661 47:0.77770305 48:0.0080473758 49:0.074752048 50:0.14443262 51:0.26666138 
400 0 1:0.33333334 2:0.43013814 3:5.3110325e-05 4:0.087063171 5:0.33333334 6:0.28424823 7:0.57268101 9:0.14804095 11:0.14804095 13:0.033333335 15:0.58615083 16:1 17:0.59163827 18:1 19:1 21:1 22:0.93407291 23:0.80698752 25:0.088909604 26:0.010315191 27:0.2366327 28:1 29:0.60543263 30:1 31:1 33:1 34:0.93517822 35:0.81092203 37:0.088909604 38:0.010256332 39:0.24043696 40:1 41:0.58615083 42:1 43:1 45:1 46:0.93486661 47:0.80741954 49:0.088907585 50:0.010147528 51:0.23139322 
400 0 1:1 2:0.37294504 3:0.048395939 4:0.33096296 5:1 6:0.38947314 7:0.5162881 10:0.25070873 14:0.25 15:0.55524766 16:1 17:0.26125443 18:0.09375 19:0.10344828 21:1 24:0.0062254146 25:0.035324849 26:0.023207238 27:0.030145792 28:1 29:0.2673457 30:0.09375 31:0.10344828 33:1 36:0.0062245149 37:0.035324849 38:0.023099069 39:0.030657789 40:1 41:0.54236537 42:0.90625 43:1 45:1 46:0.93486661 47:0.75418597 48:0.065909885 49:0.43981364 50:0.16367738 51:0.27852625 
400 0 1:1 2:0.37294504 3:0.15166898 4:0.17838749 5:1 6:0.046120655 7:0.84992599 9:0.46927872 11:0.46927872 13:0.80000001 15:0.36879024 16:1 17:0.37224281 18:1 19:1 21:1 22:0.93407291 23:0.93023849 24:0.0043435208 25:0.089919552 26:0.0052322173 27:0.13554624 28:1 29:0.38092184 30:1 31:1 33:1 34:0.93517822 35:0.93310398 36:0.0043426193 37:0.089919552 38:0.0051928009 39:0.13773875 40:1 41:0.36879024 42:1 43:1 45:1 46:0.93486661 47:0.9318648 48:0.0043410757 49:0.089917533 50:0.005130081 51:0.13251297 
400 0 1:1 2:0.37294504 3:0.01911461 4:0.040183391 5:1 6:0.17173414 7:0.8049165 9:0.44412285 10:0.40888831 11:0.44412285 13:0.3888889 15:0.46508086 16:1 17:0.46943489 18:1 19:1 21:1 22:0.93407291 23:0.86429429 24:0.00083263335 25:0.006222568 26:0.0081997896 27:0.052714407 28:1 29:0.48038 30:1 31:1 33:1 34:0.93517822 35:0.86773175 36:0.00083172874 37:0.006222568 38:0.0081490232 39:0.053586248 40:1 41:0.46508086 42:1 43:1 45:1 46:0.93486661 47:0.86528158 48:0.0008301796 49:0.0062203635 50:0.0080593973 51:0.051488943 
400 0 0:1 2:0.59615642 3:0.015285462 4:0.089764044 6:0.38947314 7:0.53573847 9:0.49178141 10:0.40888831 11:0.49178141 13:0.1875 15:0.53542393 16:1 17:0.54043651 18:1 19:1 21:1 22:0.93407291 23:0.75426489 24:0.016137391 25:0.10589699 26:0.13910387 27:0.26223549 28:1 29:0.55303705 30:1 31:1 33:1 34:0.93517822 35:0.75865662 36:0.016136501 37:0.10589699 38:0.13855241 39:0.26644796 40:1 41:0.53542393 42:1 43:1 45:1 46:0.93486661 47:0.75418597 48:0.016134975 49:0.10589501 50:0.13727593 51:0.25643724 
400 0 0:1 2:0.45502147 3:0.014900858 4:0.047016986 6:0.31214094 7:0.28653255 9:0.53072125 10:0.585334 11:0.53072125 13:0.32352942 15:0.58615083 16:1 17:0.59163827 18:1 19:1 21:1 22:0.93407291 23:0.79294693 24:0.014587354 25:0.063732021 26:0.13175866 27:0.28841251 28:1 29:0.60543263 30:1 31:1 33:1 34:0.93517822 35:0.79700315 36:0.014586462 37:0.063732021 38:0.1312353 39:0.29304236 40:1 41:0.58615083 42:1 43:1 45:1 46:0.93486661 47:0.79324287 48:0.014584934 49:0.063729942 50:0.13002542 51:0.28204292 
400 0 0:1 2:0.45115936 3:0.0053147818 4:0.064117528 6:0.38473421 7:0.14776604 9:0.79828382 10:0.31635919 11:0.79828382 13:0.87234044 15:0.65344679 16:1 17:0.65956426 18:1 19:1 21:1 22:0.93407291 23:0.75662637 24:0.0032242746 25:0.065526977 26:0.091814712 27:0.23694859 28:1 29:0.67494237 30:1 31:1 33:1 34:0.93517822 35:0.76099765 36:0.0032233724 37:0.065526977 38:0.09144412 39:0.2407579 40:1 41:0.65344679 42:1 43:1 45:1 46:0.93486661 47:0.7565704 48:0.0032218269 49:0.065524906 50:0.0905964 51:0.23170221 
400 0 1:1 2:0.27833503 3:0.00025772478 4:0.051688712 5:0.66666669 6:0.71615386 7:0.49575847 14:0.75 15:0.84475017 16:1 17:0.84981704 18:0.97902095 19:1 21:1 22:0.93990511 23:0.59792215 24:0.00060988637 25:0.119674 26:0.23717596 27:0.40391955 28:1 29:0.09523046 30:0.0017482517 31:0.0017857143 33:1 34:0.20299836 35:0.01720354 36:0.0022489759 37:0.019223841 38:0.43687412 39:0.10941946 40:1 41:0.84193498 42:0.97902095 43:1 45:1 46:0.94062859 47:0.59632832 48:0.0006074321 49:0.11967205 50:0.23408374 51:0.39502904 
400 0 0:1 2:0.37812245 3:0.017183507 4:0.072822109 6:0.48730549 7:0.17781988 9:0.85972631 10:0.65959704 11:0.85972631 13:0.74324322 15:0.68234301 16:1 17:0.68873101 18:1 19:1 21:1 22:0.93990511 23:0.71051556 24:0.017538233 25:0.089379661 26:0.13576722 27:0.26959011 28:1 29:0.70478916 30:1 31:1 33:1 34:0.94091266 35:0.71528673 36:0.017537342 37:0.089379661 38:0.13522853 39:0.27391985 40:1 41:0.68234301 42:1 43:1 45:1 46:0.94062859 47:0.71001273 48:0.017535821 49:0.089377642 50:0.1339823 51:0.26363131 
400 0 0:1 2:0.34554034 3:0.010847723 4:0.036225807 6:0.90910441 7:0.49812368 9:1 10:0.90604007 11:1 13:0.25586355 14:0.25 15:0.95050859 16:1 17:0.73184669 18:0.18296529 19:0.22393823 21:1 22:0.358069 23:0.042746652 24:0.01592892 25:0.047445666 26:0.17446084 27:0.28176126 28:1 29:0.95403779 30:0.81703472 31:1 33:1 34:0.94091266 35:0.51014 36:0.017455801 37:0.046149872 38:0.18444474 39:0.28099781 40:1 41:0.9236536 42:0.81703472 43:1 45:1 46:0.94062859 47:0.50106597 48:0.01745428 49:0.04614776 50:0.18275058 51:0.27044615 
400 0 0:1 2:0.73850799 3:0.0057216156 4:0.017773105 6:0.08451508 7:0.57025301 9:0.14804095 10:0.1581796 11:0.14804095 13:0.083333336 15:0.38445693 16:1 17:0.38805616 18:1 19:1 21:1 22:0.93990511 23:0.91458631 24:0.008744983 25:0.057811689 26:0.17920001 27:0.48190358 28:1 29:0.39710388 30:1 31:1 33:1 34:0.94091266 35:0.91758752 36:0.0087440852 37:0.057811689 38:0.17849518 39:0.48961851 40:1 41:0.38445693 42:1 43:1 45:1 46:0.94062859 47:0.91606092 48:0.0087425485 49:0.057809602 50:0.17685518 51:0.47131109 
400 0 0:1 2:0.43935344 3:0.00078795425 4:0.048444841 6:0.52404392 7:0.51802999 15:0.65246516 16:1 17:0.65857345 18:1 19:1 21:1 22:0.93990511 23:0.69236469 24:0.00092903816 25:0.062731802 26:0.15221652 27:0.27966097 28:1 29:0.67392844 30:1 31:1 33:1 34:0.94091266 35:0.69729334 36:0.00092813361 37:0.062731802 38:0.1516149 39:0.28415129 40:1 41:0.65246516 42:1 43:1 45:1 46:0.94062859 47:0.69168603 48:0.00092658465 49:0.062729724 50:0.15021954 51:0.27348238 
400 0 0:1 2:0.3943195 3:0.0065637431 4:0.045200996 6:0.08451508 7:0.55451727 10:0.1581796 15:0.21407612 16:1 17:0.21608026 18:1 19:1 21:1 22:0.93990511 23:0.91458631 24:0.0019736502 25:0.079523705 26:0.051019475 27:0.34161919 28:1 29:0.22111829 30:1 31:1 33:1 34:0.94091266 35:0.91758752 36:0.0019727466 37:0.079523705 38:0.05080492 39:0.34709737 40:1 41:0.21407612 42:1 43:1 45:1 46:0.94062859 47:0.91606092 48:0.0019711992 49:0.079521663 50:0.05032707 51:0.33408836 
400 0 0:1 2:0.44686863 3:7.4090836e-05 4:0.12037351 6:0.34850591 7:0.76201403 10:0.84745538 15:0.57604367 16:1 17:0.58143651 18:1 19:1 21:1 22:0.93990511 23:0.77951843 24:1.5612735e-05 25:0.11011181 26:0.07602638 27:0.21807618 28:1 29:0.594993 30:1 31:1 33:1 34:0.94091266 35:0.78369111 36:1.4707362e-05 37:0.11011181 38:0.075716175 39:0.22158457 40:1 41:0.57604367 42:1 43:1 45:1 46:0.94062859 47:0.77968425 48:1.3156983e-05 49:0.11010984 50:0.075011604 51:0.2132417 
400 0 1:1 2:0.41262791 3:0.00069843576 4:0.070980199 5:1 6:0.28424823 7:0.49895641 10:0.36728165 15:0.50925893 16:1 17:0.51402658 18:1 19:1 21:1 22:0.93990511 23:0.81178999 24:0.0013093253 25:0.091267258 26:0.20521681 27:0.27835858 28:1 29:0.52601135 30:1 31:1 33:1 34:0.94091266 35:0.81568283 36:0.0013084211 37:0.091267258 38:0.20441248 39:0.28282815 40:1 41:0.50925893 42:1 43:1 45:1 46:0.94062859 47:0.81226856 48:0.0013068727 49:0.091265246 50:0.20253658 51:0.27220845 
400 0 0:1 1:0.66666669 2:0.61294162 3:0.25150695 4:0.38205215 6:0.066118687 7:0.75165075 9:0.46927872 10:0.1581796 11:0.46927872 13:0.72727275 15:0.44789401 16:1 17:0.4520871 18:1 19:1 21:1 22:0.93990511 23:0.92434835 24:0.0041045421 25:0.09232071 26:0.0028937748 27:0.069317169 28:1 29:0.46262777 30:1 31:1 33:1 34:0.94091266 35:0.92726493 36:0.0041036406 37:0.09232071 38:0.0028633028 39:0.070453726 40:1 41:0.44789401 42:1 43:1 45:1 46:0.94062859 47:0.92591763 48:0.0041020969 49:0.092318699 50:0.0028217842 51:0.067729346 
400 0 0:1 2:0.49818915 3:0.0047745737 4:0.047144696 6:0.27671209 7:0.73081559 10:0.73456329 15:0.50925893 16:1 17:0.51402658 18:1 19:1 21:1 22:0.93990511 23:0.81559312 24:0.01533765 25:0.076792426 26:0.27770668 27:0.32535747 28:1 29:0.52601135 30:1 31:1 33:1 34:0.94091266 35:0.819453 36:0.015336758 37:0.076792426 38:0.27662507 39:0.33057639 40:1 41:0.50925893 42:1 43:1 45:1 46:0.94062859 47:0.81610852 48:0.015335231 49:0.076790385 50:0.27409196 51:0.31818157 
400 0 0:1 2:0.41839072 3:0.0014900886 4:0.044547804 6:0.62409413 7:0.88030976 9:1 10:0.31635919 11:1 13:0.97777778 15:0.79727459 16:1 17:0.80473858 18:1 19:1 21:1 22:0.93990511 23:0.6430971 24:0.0043462743 25:0.064452276 26:0.26392129 27:0.30116197 28:1 29:0.82350147 30:1 31:1 33:1 34:0.94091266 35:0.648453 36:0.0043453728 37:0.064452276 38:0.2628924 39:0.30599511 40:1 41:0.79727459 42:1 43:1 45:1 46:0.94062859 47:0.64194107 48:0.0043438296 49:0.064450204 50:0.26048428 51:0.29451412 
400 0 0:1 2:0.51850677 3:0.030448655 4:0.11835808 6:0.23480867 7:0.8753432 9:0.6173197 11:0.6173197 13:0.70833331 15:0.50028837 16:1 17:0.50497204 18:1 19:1 21:1 22:0.93990511 23:0.83682299 24:0.025800737 25:0.094120249 26:0.11840564 27:0.19617145 28:1 29:0.51674569 30:1 31:1 33:1 34:0.94091266 35:0.84049875 36:0.025799856 37:0.094120249 38:0.11793334 39:0.19933058 40:1 41:0.50028837 42:1 43:1 45:1 46:0.94062859 47:0.83754414 48:0.025798345 49:0.094118237 50:0.11684453 51:0.19181502 
400 0 1:1 2:0.41262791 3:0.04966636 4:0.17313464 5:1 6:0.08451508 7:0.15680897 9:0.41560349 10:0.40888831 11:0.41560349 13:0.5 15:0.45240337 16:1 17:0.45663869 18:1 19:1 21:1 22:0.93990511 23:0.91458631 24:0.0058566895 25:0.11376011 26:0.021363065 27:0.16858938 28:1 29:0.46728545 30:1 31:1 33:1 34:0.94091266 35:0.91758752 36:0.0058557899 37:0.11376011 38:0.021261949 39:0.17130874 40:1 41:0.45240337 42:1 43:1 45:1 46:0.94062859 47:0.91606092 48:0.0058542485 49:0.11375815 50:0.021052977 51:0.16483495 
204.7531222775237 0 0:1 2:0.1796733 3:1 4:1 6:0.02421527 7:0.51178193 14:0.25 15:0.42815223 16:1 17:0.093060702 18:0.041666668 19:0.043478262 21:1 22:0.19818927 23:0.33711952 25:0.0055432585 28:1 29:0.09523046 30:0.041666668 31:0.043478262 33:1 34:0.21163228 35:0.34512916 37:0.0055432585 40:1 41:0.42272237 42:0.95833331 43:1 45:1 46:0.94062859 47:0.94864964 48:1 49:1 50:0.13192527 51:0.22737333 
400 0 0:1 2:0.42575958 3:0.012061665 4:0.043055043 6:0.52404392 7:0.13919288 9:0.91041446 10:0.56706792 11:0.91041446 13:0.80459768 14:0.25 15:0.73389274 16:1 17:0.53304428 18:0.20967741 19:0.26530612 21:1 22:0.011184618 24:0.006109708 25:0.043908127 26:0.079149276 27:0.23693083 28:1 29:0.5454725 30:0.20967741 31:0.26530612 33:1 34:0.027762899 36:0.0061088083 37:0.043908127 38:0.078827128 39:0.24073984 40:1 41:0.70273459 42:0.7903226 43:1 45:1 46:0.94539654 47:0.69569731 48:0.010362879 49:0.05944486 50:0.11817639 51:0.28550416 
400 0 0:1 2:0.5413186 3:0.0074534193 4:0.14777979 6:0.34850591 7:0.32698548 9:0.51213759 10:0.73456329 11:0.51213759 13:0.25 15:0.6367985 16:1 17:0.6427601 18:1 19:1 21:1 22:0.94473112 23:0.78349215 24:0.0011917896 25:0.10551015 26:0.028889228 27:0.18022677 28:1 29:0.65774637 30:1 31:1 33:1 34:0.94565779 35:0.78763038 36:0.0011908853 37:0.10551015 38:0.028759325 39:0.18313168 40:1 41:0.6367985 42:1 43:1 45:1 46:0.94539654 47:0.78369647 48:0.0011893366 49:0.10550816 50:0.028482119 51:0.17621835 
400 0 0:1 1:0.66666669 2:0.47902924 3:0.00019427166 4:0.01025077 7:0.65231377 9:0.14804095 10:0.36728165 11:0.14804095 13:0.125 15:0.25883126 16:1 17:0.26125443 18:1 19:1 21:1 22:0.94473112 23:0.96405119 24:0.01730838 25:0.049708717 26:0.86603487 27:0.57931209 28:1 29:0.2673457 30:1 31:1 33:1 34:0.94565779 35:0.96662343 36:0.01730749 37:0.049708717 38:0.86270285 39:0.58858013 40:1 41:0.25883126 42:1 43:1 45:1 46:0.94539654 47:0.96600515 48:0.017305968 49:0.049706612 50:0.85483569 51:0.56659365 
0 195.8176041309618 0:1 2:0.50229985 3:0.0016949241 4:0.0094353585 6:0.42016301 7:0.96494079 9:0.78245598 10:0.50141746 11:0.78245598 13:0.69090909 14:0.25 15:0.59853303 17:0.59958482 18:0.96629214 19:1 20:1 21:0.875 24:0.064408742 25:0.1019005 26:0.70729637 27:0.81097335 29:0.61356449 30:0.96629214 31:1 32:1 33:0.875 36:0.064407885 37:0.1019005 38:0.7045716 39:0.82393509 41:0.5940237 42:0.96629214 43:1 44:1 45:0.875 48:0.06440644 49:0.10189851 50:0.6981436 51:0.79319888 
400 0 1:1 2:0.54348636 3:0.0027941409 4:0.043872312 5:0.66666669 7:0.51264125 15:0.30627367 16:1 17:0.30914098 18:1 19:1 21:1 22:0.94473112 23:0.96405119 24:0.0020978621 25:0.049866464 26:0.10872721 27:0.25571007 28:1 29:0.31634876 30:1 31:1 33:1 34:0.94565779 35:0.96662343 36:0.0020969587 37:0.049866464 38:0.10829193 39:0.25981849 40:1 41:0.30627367 42:1 43:1 45:1 46:0.94539654 47:0.96600515 48:0.0020954113 49:0.049864359 50:0.10729087 51:0.25005421 
342.3891857745003 0 1:0.33333334 2:0.36203539 3:1.6687412e-05 4:0.057651851 5:0.33333334 6:0.20542841 7:0.50432539 16:1 21:1 22:0.94473112 23:0.85577738 24:0.0027992968 25:0.089104213 26:0.9534499 27:0.31468233 28:1 33:1 34:0.94565779 35:0.85928869 36:0.0027983941 37:0.089104213 38:0.94978356 39:0.31973106 40:1 45:1 46:0.94539654 47:0.85668218 48:0.0027968478 49:0.089102194 50:0.94112378 51:0.30773944 
400 0 0:1 1:0.66666669 2:0.61228997 3:0.0019575038 4:0.060170468 6:0.13223737 7:0.51125818 15:0.31895116 16:1 17:0.32193714 18:1 19:1 21:1 22:0.94473112 23:0.89352584 24:8.2645929e-05 25:0.080918849 26:0.0097986469 27:0.28695273 28:1 29:0.32944328 30:1 31:1 33:1 34:0.94565779 35:0.89670968 36:8.1740611e-05 37:0.080918849 38:0.0097417636 39:0.29155931 40:1 41:0.31895116 42:1 43:1 45:1 46:0.94539654 47:0.89479637 48:8.0190337e-05 49:0.080916807 50:0.0096376427 51:0.280615 
400 0 1:0.33333334 2:0.54415095 3:0.036823992 4:0.29071131 5:0.33333334 6:0.13223737 7:0.64410961 9:0.14804095 10:0.1581796 11:0.14804095 13:0.06666667 15:0.46098781 16:1 17:0.46530351 18:1 19:1 21:1 22:0.94473112 23:0.89352584 24:0.0032546823 25:0.11222875 26:0.016218906 27:0.10717633 28:1 29:0.4761523 30:1 31:1 33:1 34:0.94565779 35:0.89670968 36:0.0032537801 37:0.11222875 38:0.016137466 39:0.10891651 40:1 41:0.46098781 42:1 43:1 45:1 46:0.94539654 47:0.89479637 48:0.0032522345 49:0.11222678 50:0.015975134 51:0.10476223 
400 0 0:1 2:0.50113368 3:0.015655441 4:0.044680029 7:0.4674876 15:0.30627367 16:1 17:0.30914098 18:1 19:1 21:1 22:0.94473112 23:0.9790327 24:0.022239311 25:0.066729888 26:0.17064323 27:0.30751601 28:1 29:0.31634876 30:1 31:1 33:1 34:0.94565779 35:0.981475 36:0.022238426 37:0.066729888 38:0.16997112 39:0.31245044 40:1 41:0.30627367 42:1 43:1 45:1 46:0.94539654 47:0.98113185 48:0.02223691 49:0.066727825 50:0.16840871 51:0.30072951 
400 0 0:1 2:0.15001029 3:0.00037681562 4:0.0034578079 6:0.26085529 7:0.5038799 9:0.2960819 10:0.36728165 11:0.2960819 13:0.11111111 14:0.25 15:0.58451873 16:1 17:0.58999091 18:1 19:1 21:1 23:0.046477985 24:0.00069957809 25:0.0036206623 26:0.2052303 27:0.24927922 28:1 29:0.60374683 30:1 31:1 33:1 35:0.057008334 36:0.00069867331 37:0.0036206623 38:0.20442592 39:0.25328511 40:1 41:0.58451873 42:1 43:1 45:1 47:0.039540686 48:0.00069712399 49:0.0036184527 50:0.2025499 51:0.24376373 
400 0 1:1 2:0.40726879 3:0.024314536 4:0.047686644 5:1 7:0.18077232 9:0.44412285 11:0.44412285 13:0.875 14:0.25 15:0.23832725 16:1 17:0.21608026 18:0.80000001 19:1 21:1 22:0.020896737 23:0.20675345 24:0.034586504 25:0.065916277 26:0.17076544 27:0.29221651 28:1 29:0.22111829 30:0.80000001 31:1 33:1 34:0.037312187 35:0.21589373 36:0.034585625 37:0.065916277 38:0.17009288 39:0.29690701 40:1 41:0.21407612 42:0.80000001 43:1 45:1 46:0.032684084 47:0.20136921 48:0.034584127 49:0.065914214 50:0.16852935 51:0.28576389 
400 0 1:1 2:0.40726879 3:0.0027027964 4:0.037895169 5:1 6:0.046120655 7:0.4458839 15:0.41114873 16:1 17:0.41499785 18:1 19:1 21:1 22:0.94642156 23:0.94040793 24:0.007272257 25:0.067010343 26:0.25229356 27:0.34241048 28:1 29:0.42467374 30:1 31:1 33:1 34:0.94731987 35:0.94318521 36:0.0072713583 37:0.067010343 38:0.25130916 39:0.34790125 40:1 41:0.41114873 42:1 43:1 45:1 46:0.94706661 47:0.94213277 48:0.0072698193 49:0.067008272 50:0.24900645 51:0.33486238 
400 0 1:1 2:0.40726879 3:0.0044625327 4:0.14667092 5:1 6:0.10154754 7:0.48752385 10:0.31635919 15:0.41706139 16:1 17:0.42096585 18:1 19:1 21:1 22:0.94642156 23:0.91097254 24:0.0034900527 25:0.10519668 26:0.11185397 27:0.18088029 28:1 29:0.43078089 30:1 31:1 33:1 34:0.94731987 35:0.9140051 36:0.0034891504 37:0.10519668 38:0.11140674 39:0.18379563 40:1 41:0.41706139 42:1 43:1 45:1 46:0.94706661 47:0.91241217 48:0.0034876054 49:0.1051947 50:0.11037732 51:0.17685761 
400 0 0:1 2:0.47961238 3:0.0058034058 4:0.035600964 6:1 7:0.49679238 9:1 10:1 11:1 13:0.063700706 14:0.75 15:1 16:1 17:1 18:0.99063146 19:1 21:1 22:0.94642156 23:0.34831113 24:0.0057843691 25:0.035785761 26:0.13366969 27:0.23473585 28:1 29:1 30:0.99063146 31:1 33:1 34:0.94731987 35:0.3562237 36:0.005783469 37:0.035785761 38:0.133139 39:0.23850986 40:1 41:1 42:0.99063146 43:1 45:1 46:0.94706661 47:0.34429857 48:0.0057819276 49:0.035783622 50:0.1319118 51:0.22953777 
400 0 0:1 2:0.38336959 3:0.0045177834 4:0.02800058 6:1 7:0.49985802 9:1 10:0.95953155 11:1 13:0.13846155 14:0.25 15:1 16:1 17:1 18:0.90287924 19:1 21:1 22:0.94642156 23:0.45203155 24:0.0039939615 25:0.031318855 26:0.12256685 27:0.25317717 28:1 29:1 30:0.90287924 31:1 33:1 34:0.94731987 35:0.45904458 36:0.00399306 37:0.031318855 38:0.12207863 39:0.25724524 40:1 41:1 42:0.90287924 43:1 45:1 46:0.94706661 47:0.44902408 48:0.0039915158 49:0.031316705 50:0.1209521 51:0.24757661 
400 0 1:0.33333334 2:0.35937881 3:0.11697672 4:0.362611 5:0.33333334 7:0.79370451 9:0.34374046 11:0.34374046 13:0.66666669 16:1 21:1 22:0.94642156 23:0.99771982 24:0.0017126881 25:0.12431076 26:0.0025935776 27:0.096162312 28:1 33:1 34:0.94731987 35:1 36:0.0017117843 37:0.12431076 38:0.002564254 39:0.097726882 40:1 45:1 46:0.94706661 47:1 48:0.0017102365 49:0.12430882 50:0.0025254572 51:0.09398859 
400 0 1:1 2:0.40726879 3:0.04679808 4:0.067775756 5:1 6:0.14617088 7:0.51053458 9:0.34374046 10:0.52546126 11:0.34374046 13:0.25 15:0.46905166 16:1 17:0.47344288 18:1 19:1 21:1 22:0.94642156 23:0.88767725 24:0.060730886 25:0.084032282 26:0.16052639 27:0.27148587 28:1 29:0.48448142 30:1 31:1 33:1 34:0.94731987 35:0.89091182 36:0.060730029 37:0.084032282 38:0.15989299 39:0.27584583 40:1 41:0.46905166 42:1 43:1 45:1 46:0.94706661 47:0.8888911 48:0.060728572 49:0.084030248 50:0.15842229 51:0.2654857 
400 0 1:1 2:0.48497108 3:0.0018481958 4:0.0076088361 5:0.66666669 6:0.31214094 7:0.97826648 9:0.6787622 10:0.44406623 11:0.6787622 13:0.67647058 14:0.25 15:0.51491994 16:1 17:0.51402658 18:0.95744681 19:1 21:0.4375 24:0.003040411 25:0.009744511 26:0.18832435 27:0.27716768 28:1 29:0.52601135 30:0.95744681 31:1 33:0.4375 35:0.0045445226 36:0.0030395086 37:0.009744511 38:0.18758461 39:0.28161824 40:1 41:0.50925893 42:0.95744681 43:1 45:0.4375 48:0.0030379628 49:0.0097423149 50:0.18586189 51:0.27104351 
400 0 1:1 2:0.40726879 3:0.053203724 4:0.28683421 5:1 6:0.066118687 7:0.85334206 9:0.44412285 10:0.25070873 11:0.44412285 13:0.63636363 15:0.44322643 16:1 17:0.44737583 18:1 19:1 21:1 22:0.94642156 23:0.92971474 24:0.016588518 25:0.10290746 26:0.05224672 27:0.10039498 28:1 29:0.45780665 30:1 31:1 33:1 34:0.94731987 35:0.93258476 36:0.016587628 37:0.10290746 38:0.052027471 39:0.10202704 40:1 41:0.44322643 42:1 43:1 45:1 46:0.94706661 47:0.93133599 48:0.016586104 49:0.10290547 50:0.051538497 51:0.098128885 
400 0 0:1 2:0.43859968 3:0.0055998596 4:0.056433767 6:0.30547863 7:0.94209361 9:0.75315285 11:0.75315285 13:1 15:0.60431713 16:1 17:0.60997468 18:1 19:1 21:1 22:0.94642156 23:0.8064639 24:0.010917958 25:0.084318765 26:0.20893183 27:0.30777022 28:1 29:0.62419653 30:1 31:1 33:1 34:0.94731987 35:0.81040287 36:0.010917062 37:0.084318765 38:0.20811328 39:0.31270871 40:1 41:0.60431713 42:1 43:1 45:1 46:0.94706661 47:0.80689085 48:0.010915528 49:0.084316738 50:0.20620371 51:0.30097815 
400 0 0:1 2:0.41301826 3:0.004121603 4:0.085334584 6:0.10154754 7:0.56759149 10:0.25070873 15:0.29225937 16:1 17:0.29499546 18:1 19:1 21:1 22:0.94642156 23:0.91097254 24:0.024122855 25:0.076693118 26:0.37164113 27:0.21547177 28:1 29:0.30187342 30:1 31:1 33:1 34:0.94731987 35:0.9140051 36:0.02412197 37:0.076693118 38:0.37020025 39:0.21893865 40:1 41:0.29225937 42:1 43:1 45:1 46:0.94706661 47:0.91241217 48:0.024120457 49:0.076691069 50:0.36681545 51:0.21069413 
400 0 0:1 2:0.51123512 3:0.011891376 4:0.088909224 6:0.34283078 7:0.98278648 9:0.72642076 10:0.44406623 11:0.72642076 13:0.74358976 15:0.52810031 16:1 17:0.53304428 18:1 19:1 21:1 22:0.94642156 23:0.78772408 24:0.011814277 25:0.094200902 26:0.13320358 27:0.24298929 28:1 29:0.5454725 30:1 31:1 33:1 34:0.94731987 35:0.79182559 36:0.011813382 37:0.094200902 38:0.13267469 39:0.2468949 40:1 41:0.52810031 42:1 43:1 45:1 46:0.94706661 47:0.78796941 48:0.01181185 49:0.09419889 50:0.13145171 51:0.23761107 
331.6374122245486 0 0:1 1:0.66666669 2:1 3:0.00087822997 7:0.50283539 9:0.2960819 10:0.25070873 11:0.2960819 13:0.375 16:1 21:1 22:0.94642156 23:0.96544331 24:0.0039766398 25:0.023224251 26:0.3303341 27:1 28:1 33:1 34:0.94731987 35:0.96800345 36:0.0039757383 37:0.023224251 38:0.3290512 39:1 40:1 45:1 46:0.94706661 47:0.96741074 48:0.0039741942 49:0.023222085 50:0.32604092 51:1 
400 0 1:1 2:0.40726879 3:0.0078064394 4:0.12170819 5:1 6:0.046120655 7:0.87553757 9:0.46927872 10:0.25070873 11:0.46927872 13:0.80000001 15:0.23832725 16:1 17:0.24055843 18:1 19:1 21:1 22:0.94642156 23:0.94040793 24:0.0033872679 25:0.092282414 26:0.06973967 27:0.18907127 28:1 29:0.24616717 30:1 31:1 33:1 34:0.94731987 35:0.94318521 36:0.0033863657 37:0.092282414 38:0.069453515 39:0.1921172 40:1 41:0.23832725 42:1 43:1 45:1 46:0.94706661 47:0.94213277 48:0.0033848204 49:0.092280403 50:0.06880594 51:0.18486981 
400 0 1:0.33333334 2:0.48843601 3:0.011096405 4:0.18447012 5:0.33333334 6:0.046120655 7:0.77157229 10:0.47453877 15:0.40496096 16:1 17:0.40875217 18:1 19:1 21:1 22:0.94642156 23:0.94040793 24:0.0070826891 25:0.096044995 26:0.095343046 27:0.13924699 28:1 29:0.41828242 30:1 31:1 33:1 34:0.94731987 35:0.94318521 36:0.0070817904 37:0.096044995 38:0.094958961 39:0.14149851 40:1 41:0.40496096 42:1 43:1 45:1 46:0.94706661 47:0.94213277 48:0.0070802509 49:0.096042991 50:0.094079249 51:0.13613294 
400 0 0:1 2:0.7299825 3:0.0023822824 4:0.094606988 6:0.15930776 7:0.78392875 9:0.23463936 10:0.60224587 11:0.23463936 13:0.11764706 15:0.45240337 16:1 17:0.45663869 18:1 19:1 21:1 22:0.94642156 23:0.88087577 24:0.0051838695 25:0.093319461 26:0.22339875 27:0.23069464 28:1 29:0.46728545 30:1 31:1 33:1 34:0.94731987 35:0.8841694 36:0.0051829685 37:0.093319461 38:0.22252487 39:0.23440422 40:1 41:0.45240337 42:1 43:1 45:1 46:0.94706661 47:0.88202375 48:0.0051814266 49:0.093317449 50:0.22048414 51:0.22558476 
400 0 1:0.33333334 2:0.42915344 3:0.013836444 4:0.11366802 5:0.33333334 6:0.046120655 7:0.63115776 9:0.41560349 10:0.31635919 11:0.41560349 13:0.60000002 15:0.40496096 16:1 17:0.40875217 18:1 19:1 21:1 22:0.94642156 23:0.94040793 24:0.015574032 25:0.087666608 26:0.14556572 27:0.19164249 28:1 29:0.41828242 30:1 31:1 33:1 34:0.94731987 35:0.94318521 36:0.01557314 37:0.087666608 38:0.14498954 39:0.19472943 40:1 41:0.40496096 42:1 43:1 45:1 46:0.94706661 47:0.94213277 48:0.015571614 49:0.087664582 50:0.14365448 51:0.18738493 
400 0 0:1 2:0.48825625 3:0.0095044989 4:0.098431244 6:0.28424823 7:0.1132062 9:0.69585758 10:0.31635919 11:0.69585758 13:0.83333331 15:0.58451873 16:1 17:0.58999091 18:1 19:1 21:1 22:0.94642156 23:0.8171559 24:0.0068442933 25:0.090786844 26:0.10478008 27:0.21954823 28:1 29:0.60374683 30:1 31:1 33:1 34:0.94731987 35:0.82100219 36:0.0068433941 37:0.090786844 38:0.1043599 39:0.22308008 40:1 41:0.58451873 42:1 43:1 45:1 46:0.94706661 47:0.81768644 48:0.0068418547 49:0.090784833 50:0.10339463 51:0.21468161 
0 23.16352986192041 0:1 2:0.24181847 3:0.001232037 4:0.040130746 6:0.02421527 7:0.51130092 14:0.25 15:0.44322643 16:1 17:0.14749773 18:0.074074075 19:0.079999998 21:1 22:0.19835922 23:0.33725813 24:1 25:1 26:1 27:1 28:1 29:0.15093671 30:0.074074075 31:0.079999998 33:1 34:0.21179937 35:0.34526658 36:1 37:1 38:1 39:1 40:1 41:0.43336907 42:0.92592591 43:1 45:1 46:0.94706661 47:0.95406812 48:1 49:1 50:1 51:1 
275.7030440156518 3.219482188624654 0:1 1:0.66666669 2:0.40879825 3:0.00062096427 4:0.038979083 6:0.70691311 7:0.50347471 14:0.25 15:0.81668425 16:1 17:0.093060702 18:0.0021598272 19:0.0021645022 21:1 22:0.20121685 23:0.017716346 24:0.0018180807 25:0.041039705 26:0.26497129 27:0.24244332 28:1 29:0.09523046 30:0.0021598272 31:0.0021645022 33:1 34:0.21460909 35:0.028496144 36:0.0018171769 37:0.041039705 38:0.2639384 39:0.24634023 40:1 41:0.81639731 42:0.99784017 43:1 45:1 46:0.95695859 47:0.61463243 48:0.0020304727 49:0.08416342 50:0.27746072 51:0.37837481 
400 0 1:0.33333334 2:0.44180813 3:0.0052366047 4:0.022678697 5:0.33333334 6:0.02421527 7:0.26701003 9:0.34374046 10:0.36728165 11:0.34374046 13:0.44444445 15:0.29225937 16:1 17:0.29499546 18:1 19:1 21:1 22:0.95643407 23:0.96047437 24:0.01846352 25:0.054193094 26:0.29155296 27:0.40828997 28:1 29:0.30187342 30:1 31:1 33:1 34:0.95716453 35:0.9630776 36:0.01846263 37:0.054193094 38:0.29041839 39:0.41483119 40:1 41:0.29225937 42:1 43:1 45:1 46:0.95695859 47:0.96239364 48:0.01846111 49:0.054190997 50:0.28775972 51:0.39930409 
400 0 0:1 1:0.66666669 2:0.86373341 3:0.010171099 4:0.024079027 6:0.08451508 7:0.058532458 9:0.53072125 10:0.1581796 11:0.53072125 13:0.91666669 15:0.36879024 16:1 17:0.37224281 18:1 19:1 21:1 22:0.95643407 23:0.92819828 24:0.0079840533 25:0.052104741 26:0.11190703 27:0.38566968 28:1 29:0.38092184 30:1 31:1 33:1 34:0.95716453 35:0.93108147 36:0.0079831555 37:0.052104741 38:0.11145959 39:0.3918502 40:1 41:0.36879024 42:1 43:1 45:1 46:0.95695859 47:0.92980486 48:0.007981617 49:0.05210264 50:0.1104297 51:0.37717748 
400 17.88178938657815 0:1 2:0.47426042 3:0.00052305911 4:0.013063224 6:0.37495261 7:0.97254366 9:0.81771338 11:0.81771338 13:1 15:0.45676482 16:1 17:0.46104097 18:1 19:1 21:1 22:0.95643407 23:0.77991581 24:0.0097590992 25:0.050293408 26:0.57437426 27:0.52176267 28:1 29:0.4717904 30:1 31:1 33:1 34:0.95716453 35:0.78408509 36:0.0097582024 37:0.050293408 38:0.57215786 39:0.53011316 40:1 41:0.45676482 42:1 43:1 45:1 46:0.95695859 47:0.7800855 48:0.0097566675 49:0.0502913 50:0.566935 51:0.51030028 
400 0 1:0.33333334 2:0.34035277 3:0.07982374 4:0.13430452 5:0.33333334 6:0.15930776 7:0.61969125 9:0.34374046 10:0.52546126 11:0.34374046 13:0.23529412 15:0.35102886 16:1 17:0.35431513 18:1 19:1 21:1 22:0.95643407 23:0.88912123 24:0.012379738 25:0.10476936 26:0.027652502 27:0.1931897 28:1 29:0.36257619 30:1 31:1 33:1 34:0.95716453 35:0.89234328 36:0.012378844 37:0.10476936 38:0.02752733 39:0.1963013 40:1 41:0.35102886 42:1 43:1 45:1 46:0.95695859 47:0.89034909 48:0.012377312 49:0.10476738 50:0.027261335 51:0.18889835 
400 0 0:1 2:0.70083863 3:0.0097323665 4:0.082455128 6:0.1947366 7:0.44501546 10:0.50141746 15:0.44322643 16:1 17:0.44737583 18:1 19:1 21:1 22:0.95643407 23:0.87088823 24:0.0066237184 25:0.090722181 26:0.10029007 27:0.24966013 28:1 29:0.45780665 30:1 31:1 33:1 34:0.95716453 35:0.87426853 36:0.0066228188 37:0.090722181 38:0.099887058 39:0.25367209 40:1 41:0.44322643 42:1 43:1 45:1 46:0.95695859 47:0.87193948 48:0.0066212788 49:0.090720162 50:0.098962493 51:0.24413632 
400 0 1:1 2:0.44959307 3:0.00088140531 4:0.030437475 5:1 6:0.066118687 7:0.45835978 15:0.38445693 16:1 17:0.38805616 18:1 19:1 21:1 22:0.95643407 23:0.93796039 24:0.00254837 25:0.052133381 26:0.26292008 27:0.3352021 28:1 29:0.39710388 30:1 31:1 33:1 34:0.95716453 35:0.94075888 36:0.0025474671 37:0.052133381 38:0.26189503 39:0.34057796 40:1 41:0.38445693 42:1 43:1 45:1 46:0.95695859 47:0.9396615 48:0.0025459207 49:0.05213128 50:0.25949597 51:0.32781133 
400 0 1:1 2:0.50635988 3:0.094526149 4:0.14581051 5:0.66666669 6:0.02421527 7:0.023430636 9:0.41560349 10:0.1581796 11:0.41560349 13:0.66666669 15:0.29225937 16:1 17:0.29499546 18:1 19:1 21:1 22:0.95643407 23:0.96047437 24:0.0044214837 25:0.094390117 26:0.0086249979 27:0.16674387 28:1 29:0.30187342 30:1 31:1 33:1 34:0.95716453 35:0.9630776 36:0.0044205827 37:0.094390117 38:0.0085726045 39:0.16943382 40:1 41:0.29225937 42:1 43:1 45:1 46:0.95695859 47:0.96239364 48:0.004419039 49:0.094388112 50:0.0084791239 51:0.16302972 
228.7480445193059 0 1:0.33333334 2:0.6086148 3:0.10723552 4:0.12589329 5:0.33333334 7:0.91019523 9:0.14804095 10:0.47453877 11:0.14804095 13:0.125 15:0.3411715 16:1 17:0.34436551 18:1 19:1 21:1 22:0.95643407 23:0.97368908 24:0.0028676221 25:0.11103801 26:0.0048869285 27:0.21217968 28:1 29:0.35239458 30:1 31:1 33:1 34:0.95716453 35:0.97617769 36:0.0028667194 37:0.11103801 38:0.0048488327 39:0.21559405 40:1 41:0.3411715 42:1 43:1 45:1 46:0.95695859 47:0.97573638 48:0.0028651732 49:0.11103604 50:0.0047892435 51:0.20747387 
400 0 0:1 2:0.10342185 3:0.0031397473 4:0.02411155 6:0.61548519 7:0.47436354 9:0.93855745 10:0.79792023 11:0.93855745 13:0.61538464 14:0.25 15:0.7737512 16:1 17:0.78059477 18:0.99701494 19:1 21:1 22:0.14869538 23:0.019008605 24:0.011431111 25:0.04286278 26:0.29643762 27:0.34248066 28:1 29:0.79879475 30:0.99701494 31:1 33:1 34:0.16296817 35:0.029777195 36:0.011430216 37:0.04286278 38:0.29528436 39:0.34797257 40:1 41:0.77335471 42:0.99701494 43:1 45:1 46:0.15894416 47:0.011805129 48:0.011428683 49:0.042860661 50:0.29258144 51:0.33493105 
400 0 1:1 2:0.45974669 3:0.0054200836 4:0.9193182 5:1 6:0.046120655 7:0.38001582 10:0.31635919 14:0.25 15:0.30627367 16:1 17:0.30914098 18:1 19:1 20:0.5 21:1 23:0.13771009 24:0.010132196 25:0.082319662 26:0.20361285 27:0.023969727 28:1 29:0.31634876 30:1 31:1 32:0.5 33:1 35:0.14744918 36:0.0101313 37:0.082319662 38:0.20281465 39:0.024383251 40:1 41:0.30627367 42:1 43:1 44:0.5 45:1 47:0.13165683 48:0.010129765 49:0.082317628 50:0.2009533 51:0.023371613 
400 0 0:1 2:0.47429574 3:0.024156667 4:0.10831753 7:0.1311295 9:0.38268033 10:0.31635919 11:0.38268033 13:0.625 14:0.25 15:0.40496096 16:1 17:0.40875217 18:1 19:1 21:1 22:0.14869538 23:0.30985942 24:0.025783375 25:0.099585541 26:0.14015017 27:0.21896255 28:1 29:0.41828242 30:1 31:1 33:1 34:0.16296817 35:0.31810549 36:0.025782494 37:0.099585541 38:0.1395947 39:0.22248508 40:1 41:0.40496096 42:1 43:1 45:1 46:0.15894416 47:0.30547428 48:0.025780983 49:0.099583544 50:0.13830875 51:0.21410872 
400 0 1:1 2:0.60026997 3:0.01679779 4:0.22402324 5:0.66666669 6:0.15930776 7:0.47879761 9:0.34374046 11:0.34374046 13:0.23529412 15:0.51491994 16:1 17:0.51974052 18:1 19:1 21:1 22:0.95200175 23:0.88547105 24:0.0027340972 25:0.10185761 26:0.029099459 27:0.12392159 28:1 29:0.53185856 30:1 31:1 33:1 34:0.95280647 35:0.88872486 36:0.0027331943 37:0.10185761 38:0.028968751 39:0.12592876 40:1 41:0.51491994 42:1 43:1 45:1 46:0.95257956 47:0.88666356 48:0.002731648 49:0.10185561 50:0.02868964 51:0.12114202 
400 0 0:1 1:0.66666669 2:0.88085192 3:0.0023452798 4:0.036849033 6:0.3310419 7:0.49455494 15:0.5924859 16:1 17:0.59803271 18:1 19:1 21:1 22:0.95200175 23:0.79822433 24:0.00045787994 25:0.067112684 26:0.03567132 27:0.34871686 28:1 29:0.61197615 30:1 31:1 33:1 34:0.95280647 35:0.80223483 36:0.00045697496 37:0.067112684 38:0.035515476 39:0.35430822 40:1 41:0.5924859 42:1 43:1 45:1 46:0.95257956 47:0.79857141 48:0.00045542527 49:0.067110613 50:0.03517678 51:0.34103116 
0 161.2857325288386 0:1 2:1 3:0.018316666 4:0.048919249 6:0.18352303 7:0.8338601 9:0.5921638 10:0.36728165 11:0.5921638 13:0.78947371 15:0.46508086 16:1 17:0.46943489 18:1 19:1 21:1 22:0.95200175 23:0.87299275 24:0.064862728 25:0.40233061 26:0.29215437 27:0.75234485 28:1 29:0.48038 30:1 31:1 33:1 34:0.95280647 35:0.87635475 36:0.064861879 37:0.40233061 38:0.2910175 39:0.76437181 40:1 41:0.46508086 42:1 43:1 45:1 46:0.95257956 47:0.87406439 48:0.064860426 49:0.40232924 50:0.28835341 51:0.73584998 
400 0 0:1 1:0.66666669 2:0.61464697 3:0.00844297 4:0.057485372 6:0.10154754 7:0.78390062 9:0.41560349 10:0.44406623 11:0.41560349 13:0.46153846 15:0.43336907 16:1 17:0.43742621 18:1 19:1 21:1 22:0.95200175 23:0.91556793 24:0.011357693 25:0.071491174 26:0.16461557 27:0.27206251 28:1 29:0.44762504 30:1 31:1 33:1 34:0.95280647 35:0.91856062 36:0.011356798 37:0.071491174 38:0.16396652 39:0.27643168 40:1 41:0.43336907 42:1 43:1 45:1 46:0.95257956 47:0.91705209 48:0.011355265 49:0.071489118 50:0.16245875 51:0.26604977 
400 0 0:1 2:0.57651669 3:0.00056643062 4:0.012830203 6:0.4747088 7:1 9:0.87799197 11:0.87799197 13:0.85714287 15:0.61903703 16:1 17:0.62483239 18:1 19:1 21:1 22:0.95200175 23:0.7267068 24:0.015234602 25:0.049095254 26:0.64194018 27:0.51989818 28:1 29:0.63940066 30:1 31:1 33:1 34:0.95280647 35:0.73133755 36:0.015233709 37:0.049095254 38:0.63946539 39:0.52821892 40:1 41:0.61903703 42:1 43:1 45:1 46:0.95257956 47:0.72636092 48:0.015232183 49:0.049093146 50:0.63362992 51:0.50847644 
400 0 0:1 2:0.57297868 3:0.0068369647 4:0.037990492 6:0.62409413 7:0.38670117 9:0.34374046 10:0.89274287 11:0.34374046 13:0.029629629 15:0.7737512 16:1 17:0.78099495 18:1 19:1 21:1 22:0.95200175 23:0.65305263 24:0.0096455524 25:0.052319385 26:0.16997428 27:0.29139054 28:1 29:0.79920423 30:1 31:1 33:1 34:0.95280647 35:0.65832216 36:0.0096446564 37:0.052319385 38:0.16930473 39:0.29606786 40:1 41:0.7737512 42:1 43:1 45:1 46:0.95257956 47:0.65199298 48:0.0096431207 49:0.052317284 50:0.16774838 51:0.28495595 
400 0 0:1 1:0.66666669 2:1 3:1 4:1 6:0.046120655 7:1 9:0.41560349 10:0.25070873 11:0.41560349 13:0.60000002 15:0.3602058 16:1 17:0.36357799 18:1 19:1 21:1 22:0.95200175 23:0.94500333 24:0.00045411446 25:0.099506482 27:0.027055668 28:1 29:0.37205499 30:1 31:1 33:1 34:0.95280647 35:0.94774073 36:0.00045320948 37:0.099506482 39:0.027518395 40:1 41:0.3602058 42:1 43:1 45:1 46:0.95257956 47:0.94677269 48:0.00045165978 49:0.099504486 51:0.026390206 
400 0 0:1 2:0.5525896 3:0.0019272988 4:0.047229405 6:0.14617088 7:0.28630292 9:0.23463936 10:0.50141746 11:0.23463936 13:0.125 15:0.38445693 16:1 17:0.38805616 18:1 19:1 21:1 22:0.95200175 23:0.89227265 24:0.017525613 25:0.081192762 26:0.44634312 27:0.33673498 28:1 29:0.39710388 30:1 31:1 33:1 34:0.95280647 35:0.89546734 36:0.017524723 37:0.081192762 38:0.44461647 39:0.34213531 40:1 41:0.38445693 42:1 43:1 45:1 46:0.95257956 47:0.89353102 48:0.017523199 49:0.08119072 50:0.44055441 51:0.32931077 
400 0 0:1 2:0.5867269 3:0.24092568 4:0.45368388 6:0.02421527 7:0.754345 10:0.52546126 15:0.3602058 16:1 17:0.36357799 18:1 19:1 21:1 22:0.95200175 23:0.95682424 24:0.0013288695 25:0.10498206 26:0.00082965114 27:0.066344783 28:1 29:0.37205499 30:1 31:1 33:1 34:0.95280647 35:0.95945913 36:0.0013279653 37:0.10498206 38:0.00080707436 39:0.067433946 40:1 41:0.3602058 42:1 43:1 45:1 46:0.95257956 47:0.95870817 48:0.0013264169 49:0.10498007 50:0.00078427017 51:0.064821832 
400 0 0:1 2:0.63403392 3:0.040643696 4:0.14054495 6:0.37989542 9:0.65024287 10:0.56706792 11:0.65024287 13:0.43478259 15:0.58451873 16:1 17:0.58999091 18:1 19:1 21:1 22:0.95200175 23:0.77380091 24:0.032212909 25:0.11804074 26:0.11257458 27:0.20440431 28:1 29:0.60374683 30:1 31:1 33:1 34:0.95280647 35:0.77802318 36:0.032212026 37:0.11804074 38:0.11212458 39:0.20769471 40:1 41:0.58451873 42:1 43:1 45:1 46:0.95257956 47:0.77391136 48:0.032210529 49:0.11803879 50:0.11108864 51:0.19986822 
400 0 1:1 2:0.65717888 3:0.21139862 4:0.60936224 5:0.66666669 6:0.31861553 7:0.47397652 9:0.2960819 10:0.25070873 11:0.2960819 13:0.085714288 14:0.25 15:0.58935606 16:1 17:0.59326565 18:0.98795182 19:1 21:1 22:0.048519015 23:0.073808879 24:0.026453691 25:0.11149328 26:0.022548594 27:0.052401833 28:1 29:0.60709792 30:0.98795182 31:1 33:1 34:0.064471357 35:0.084102184 36:0.02645281 37:0.11149328 38:0.022442944 39:0.05326869 40:1 41:0.58776307 42:0.98795182 43:1 45:1 46:0.059973821 47:0.067136414 48:0.026451301 49:0.11149132 50:0.022223223 51:0.05118319 
400 0 1:0.33333334 2:0.46894118 3:0.0063805701 4:0.039936863 5:0.33333334 6:0.08451508 7:0.10186241 9:0.51213759 10:0.25070873 11:0.51213759 13:0.83333331 15:0.3305248 16:1 17:0.33361915 18:1 19:1 21:1 22:0.95200175 23:0.92454815 24:0.0069575771 25:0.058899026 26:0.14248684 27:0.30489603 28:1 29:0.34139764 30:1 31:1 33:1 34:0.95280647 35:0.927463 36:0.0069566779 37:0.058899026 38:0.14192243 39:0.30978867 40:1 41:0.3305248 42:1 43:1 45:1 46:0.95257956 47:0.92611933 48:0.0069551384 49:0.05889694 50:0.14061528 51:0.29816669 
305.092867943491 0 0:1 1:0.66666669 2:1 3:0.0027316189 4:0.008638612 6:0.046120655 7:0.51171458 14:0.25 15:0.3305248 16:1 17:0.32193714 18:0.90909094 19:1 21:1 22:0.21705964 23:0.34081641 24:0.0010770457 25:0.043777183 26:0.065013602 27:0.58747792 28:1 29:0.32944328 30:0.90909094 31:1 33:1 34:0.23018627 35:0.34879398 36:0.0010761413 37:0.043777183 38:0.064745516 39:0.59687614 40:1 41:0.31895116 42:0.90909094 43:1 45:1 46:0.2264854 47:0.33673126 48:0.0010745925 49:0.043775063 50:0.064140789 51:0.57458127 
400 0 1:0.33333334 2:0.49828252 3:0.012147318 4:0.6499691 5:0.33333334 6:0.29154512 7:0.54116935 9:0.14804095 11:0.14804095 13:0.032258064 15:0.61903703 16:1 17:0.62483239 18:1 19:1 21:1 22:0.95664614 23:0.82189685 24:0.002123296 25:0.11558027 26:0.03116579 27:0.050870698 28:1 29:0.63940066 30:1 31:1 33:1 34:0.95737302 35:0.82570201 36:0.0021223926 37:0.11558027 38:0.031027177 39:0.051713139 40:1 41:0.61903703 42:1 43:1 45:1 46:0.95716804 47:0.82247329 48:0.0021208455 49:0.11557831 50:0.030729331 51:0.049685471 
400 0 1:1 2:0.4671149 3:0.015054849 4:0.031893663 5:1 6:0.046120655 7:0.047019776 9:0.49178141 10:0.1581796 11:0.49178141 13:0.89999998 15:0.41114873 16:1 17:0.41499785 18:1 19:1 21:1 22:0.95664614 23:0.9488281 24:0.012874972 25:0.048767697 26:0.11929075 27:0.31190839 28:1 29:0.42467374 30:1 31:1 33:1 34:0.95737302 35:0.95153236 36:0.012874078 37:0.048767697 38:0.11881506 39:0.31691286 40:1 41:0.41114873 42:1 43:1 45:1 46:0.95716804 47:0.95063454 48:0.012872548 49:0.048765589 50:0.11771823 51:0.30502602 
400 0 0:1 1:0.66666669 2:0.57972366 3:0.00020278103 4:0.15037128 6:0.52664095 7:0.51129395 15:0.6846835 16:1 17:0.69109339 18:1 19:1 21:1 22:0.95664614 23:0.70486426 24:4.8637085e-06 25:0.1042548 26:0.023424884 27:0.1760838 28:1 29:0.70720661 30:1 31:1 33:1 34:0.95737302 35:0.70968449 36:3.9583247e-06 37:0.1042548 38:0.023315882 39:0.17892267 40:1 41:0.6846835 42:1 43:1 45:1 46:0.95716804 47:0.70430672 48:2.4079297e-06 49:0.10425282 50:0.023088217 51:0.1721658 
400 0 1:0.33333334 2:0.51888555 3:0.0081334542 4:0.20146237 5:0.33333334 6:0.25249681 7:0.87565517 9:0.66967243 10:0.25070873 11:0.66967243 13:0.84615386 15:0.5510906 16:1 17:0.55624986 18:1 19:1 21:1 22:0.95664614 23:0.84162897 24:0.0039872304 25:0.11407539 26:0.077153347 27:0.14923501 28:1 29:0.56921911 30:1 31:1 33:1 34:0.95737302 35:0.845263 36:0.0039863284 37:0.11407539 38:0.076838829 39:0.15164578 40:1 41:0.5510906 42:1 43:1 45:1 46:0.95716804 47:0.84239668 48:0.0039847847 49:0.11407343 50:0.076124042 51:0.14590298 
400 0 1:1 2:0.4671149 3:0.029587893 4:0.14726393 5:1 7:0.50183886 9:0.14804095 10:0.25070873 11:0.14804095 13:0.125 15:0.3602058 16:1 17:0.36357799 18:1 19:1 21:1 22:0.95664614 23:0.9738636 24:0.0035004506 25:0.086563982 26:0.021480763 27:0.15420932 28:1 29:0.37205499 30:1 31:1 33:1 34:0.95737302 35:0.97635067 36:0.0034995484 37:0.086563982 38:0.021379197 39:0.1566994 40:1 41:0.3602058 42:1 43:1 45:1 46:0.95716804 47:0.97591263 48:0.0034980034 49:0.086561956 50:0.02116916 51:0.15076873 
400 0 1:0.33333334 2:0.67156219 3:0.0028585682 4:0.12475296 5:0.33333334 6:0.046120655 7:1 9:0.51213759 11:0.51213759 13:1 15:0.3602058 16:1 17:0.36357799 18:1 19:1 21:1 22:0.95664614 23:0.9488281 24:0.0023945442 25:0.099755608 26:0.11801977 27:0.19696161 28:1 29:0.37205499 30:1 31:1 33:1 34:0.95737302 35:0.95153236 36:0.002393641 37:0.099755608 38:0.11754896 39:0.20013335 40:1 41:0.3602058 42:1 43:1 45:1 46:0.95716804 47:0.95063454 48:0.0023920943 49:0.099753611 50:0.11646365 51:0.19258796 
400 0 1:0.33333334 2:0.533503 3:0.0057298508 4:0.032132089 5:0.33333334 6:0.13223737 7:0.34561968 10:0.585334 15:0.36879024 16:1 17:0.37224281 18:1 19:1 21:1 22:0.95664614 23:0.9033379 24:0.003537542 25:0.05781303 26:0.093064524 27:0.34579 28:1 29:0.38092184 30:1 31:1 33:1 34:0.95737302 35:0.90643662 36:0.00353664 37:0.05781303 38:0.092689149 39:0.35133469 40:1 41:0.36879024 42:1 43:1 45:1 46:0.95716804 47:0.9047035 48:0.0035350949 49:0.05781094 50:0.091830105 51:0.33816817 
400 0 0:1 1:0.66666669 2:0.80128437 3:0.018938148 4:0.069261417 6:0.30547863 7:0.22810531 9:0.6173197 10:0.585334 11:0.6173197 13:0.5151515 15:0.5203498 16:1 17:0.52522123 18:1 19:1 21:1 22:0.95664614 23:0.81488317 24:0.042576324 25:0.08385691 26:0.22742815 27:0.26705739 28:1 29:0.53746706 30:1 31:1 33:1 34:0.95737302 35:0.81874919 36:0.042575452 37:0.08385691 38:0.22653885 39:0.27134675 40:1 41:0.5203498 42:1 43:1 45:1 46:0.95716804 47:0.81539172 48:0.04257397 49:0.083854884 50:0.22446159 51:0.26115388 
400 0 0:1 1:0.66666669 2:0.56601417 3:0.0055304714 4:0.023817642 6:0.13223737 7:0.39091238 10:0.36728165 15:0.45676482 16:1 17:0.46104097 18:1 19:1 21:1 22:0.95664614 23:0.9033379 24:0.0029529794 25:0.054963887 26:0.08287479 27:0.40040585 28:1 29:0.4717904 30:1 31:1 33:1 34:0.95737302 35:0.90643662 36:0.0029520767 37:0.054963887 38:0.082538396 39:0.40682134 40:1 41:0.45676482 42:1 43:1 45:1 46:0.95716804 47:0.9047035 48:0.0029505307 49:0.054961793 50:0.081771731 51:0.39159206 
400 0 0:1 2:0.72655857 3:0.050566748 4:0.22647269 6:0.11740433 7:0.58245814 9:0.51213759 10:0.1581796 11:0.51213759 13:0.71428573 15:0.40496096 16:1 17:0.40875217 18:1 19:1 21:1 22:0.95664614 23:0.91107839 24:0.029675325 25:0.10205577 26:0.089018628 27:0.12296118 28:1 29:0.41828242 30:1 31:1 33:1 34:0.95737302 35:0.91411 36:0.029674448 37:0.10205577 38:0.088658728 39:0.12495304 40:1 41:0.40496096 42:1 43:1 45:1 46:0.95716804 47:0.91251904 48:0.029672943 49:0.10205378 50:0.087836362 51:0.12020258 
400 0 1:1 2:0.4671149 3:0.32224533 4:0.57483035 5:1 6:0.13223737 7:0.089686707 9:0.49178141 10:0.40888831 11:0.49178141 13:0.60000002 15:0.45240337 16:1 17:0.45663869 18:1 19:1 21:1 22:0.95664614 23:0.9033379 24:4.9502174e-05 25:0.12310798 27:0.061358638 28:1 29:0.46728545 30:1 31:1 33:1 34:0.95737302 35:0.90643662 36:4.8596834e-05 37:0.12310798 39:0.062368304 40:1 41:0.45240337 42:1 43:1 45:1 46:0.95716804 47:0.9047035 48:4.7046506e-05 49:0.12310604 51:0.059944514 
217.492384031653 0 1:1 2:0.26899567 3:0.0013174092 4:0.024588302 5:0.66666669 6:1 7:0.49664119 10:0.1581796 14:0.5 15:0.97941172 16:1 17:0.24055843 18:0.0031725888 19:0.0032175032 21:1 22:0.20818821 24:0.0010028894 25:0.066365011 26:0.11070827 27:0.43788946 28:1 29:1 30:0.98604059 31:1 33:1 34:0.95737302 35:0.47379506 36:0.0012540466 37:0.058970578 38:0.12990856 39:0.41613427 40:1 41:0.977543 42:0.98604059 43:1 45:1 46:0.95716804 47:0.46404779 48:0.0012524981 49:0.058968492 50:0.12871075 51:0.40055874 
